{"learner":{"attributes":{"scikit_learn":"{\"_estimator_type\": \"classifier\"}"},"feature_names":[],"feature_types":[],"gradient_booster":{"model":{"gbtree_model_param":{"num_parallel_tree":"1","num_trees":"100"},"iteration_indptr":[0,1,2,3,4,5,6,7,8,9,10,11,12,13,14,15,16,17,18,19,20,21,22,23,24,25,26,27,28,29,30,31,32,33,34,35,36,37,38,39,40,41,42,43,44,45,46,47,48,49,50,51,52,53,54,55,56,57,58,59,60,61,62,63,64,65,66,67,68,69,70,71,72,73,74,75,76,77,78,79,80,81,82,83,84,85,86,87,88,89,90,91,92,93,94,95,96,97,98,99,100],"tree_info":[0,0,0,0,0,0,0,0,0,0,0,0,0,0,0,0,0,0,0,0,0,0,0,0,0,0,0,0,0,0,0,0,0,0,0,0,0,0,0,0,0,0,0,0,0,0,0,0,0,0,0,0,0,0,0,0,0,0,0,0,0,0,0,0,0,0,0,0,0,0,0,0,0,0,0,0,0,0,0,0,0,0,0,0,0,0,0,0,0,0,0,0,0,0,0,0,0,0,0,0],"trees":[{"base_weights":[-1.5445143E-1,-6.456805E-1,1.3437916E0,-1.3556021E-1,-1.0218436E0,2.1427786E0,1.2826616E-1,3.0627275E-1,-5.965195E-1,-1.1134659E0,3.1185834E0,2.8821309E0,1.1001115E0,-3.4404847E-1,3.7983088E0,1.0775435E-2,1.1222924E0,-7.2234E-1,-1.5817113E-1,-1.1979309E0,-8.374665E-1,1.0422549E0,2.3612888E0,2.3916252E0,3.3250525E0,7.7517474E-1,1.8635178E0,3.2251865E-1,-8.1758547E-1,1.142179E0,4.361122E-1,-1.9367982E-1,6.8078405E-1,7.9855233E-1,1.9710761E0,-8.3456063E-1,-3.2810155E-1,-4.619628E-1,2.3865393E-1,-1.1440729E0,-1.2467475E0,-6.2270755E-1,-1.0334653E0,1.8023659E0,2.801195E0,2.9279413E0,2.0711043E0,3.1196475E0,3.6476264E0,1.6191474E0,-1.07172156E-4,1.3356687E0,2.3537986E0,-1.8731064E-1,1.2306795E0,-9.9548304E-1,-3.5754964E-1,1.1569912E-1,-1.754036E-1,8.378556E-2,3.4123018E-1,5.1202965E-1,-1.2851558E-2,4.883013E-1,6.8936235E-1,-1.565677E-1,-3.049997E-1,-1.6450691E-1,-9.4764065E-3,-1.7626014E-1,-1.2746826E-2,2.4212445E-1,-3.9513465E-3,-3.509001E-1,-2.918368E-1,-3.8102934E-1,-3.6324102E-1,-2.2864443E-1,-4.3109868E-2,-3.213087E-1,-2.6547712E-1,1.368505E-1,6.549745E-1,2.3550867E-1,8.6583406E-1,7.5865006E-1,9.6271735E-1,3.1991512E-1,8.82498E-1,1.0627836E0,7.145469E-1,1.0976962E0,3.452909E-1,3.6545524E-1,5.967911E-1,-7.009796E-2,9.709177E-2,4.3436107E-1,-1.7421286E-1,7.4414986E-1,3.2122356E-1,-1.4346564E-1,1.432248E-1,2.2979744E-1,6.244146E-1,-3.1993145E-1,-2.6915658E-1,-1.646783E-1,-3.9167468E-2],"categories":[],"categories_nodes":[],"categories_segments":[],"categories_sizes":[],"default_left":[0,0,0,0,0,0,0,0,0,0,0,0,0,0,0,0,0,0,0,0,0,0,0,0,0,0,0,0,0,0,0,0,0,0,0,0,0,0,0,0,0,0,0,0,0,0,0,0,0,0,0,0,0,0,0,0,0,0,0,0,0,0,0,0,0,0,0,0,0,0,0,0,0,0,0,0,0,0,0,0,0,0,0,0,0,0,0,0,0,0,0,0,0,0,0,0,0,0,0,0,0,0,0,0,0,0,0,0,0],"id":0,"left_children":[1,3,5,7,9,11,13,15,17,19,21,23,25,27,29,31,33,35,37,39,41,-1,43,45,47,49,51,53,55,-1,-1,57,59,61,63,65,67,69,71,73,75,77,79,81,83,85,87,89,91,93,95,97,99,101,103,105,107,-1,-1,-1,-1,-1,-1,-1,-1,-1,-1,-1,-1,-1,-1,-1,-1,-1,-1,-1,-1,-1,-1,-1,-1,-1,-1,-1,-1,-1,-1,-1,-1,-1,-1,-1,-1,-1,-1,-1,-1,-1,-1,-1,-1,-1,-1,-1,-1,-1,-1,-1,-1],"loss_changes":[1.7724922E4,3.4800771E3,5.7749697E3,1.5681848E3,3.9634912E3,2.7628184E3,4.0914143E3,9.4803033E2,2.0771484E2,2.3709766E2,5.2726807E1,4.4800977E2,3.6822913E2,6.604158E2,1.15478516E-1,3.956704E2,2.8563684E2,1.2924597E2,1.0157469E2,1.9128906E1,1.00234985E2,0E0,1.3494446E1,1.6573975E2,6.152539E1,6.850976E2,1.1181836E2,4.0276355E2,9.9737976E1,0E0,0E0,5.0154324E2,1.2349829E2,5.7954443E2,2.857019E1,1.2918762E2,4.2454826E1,2.5103249E1,5.2345646E1,1.5210449E1,1.8950195E0,7.644101E1,6.0354004E0,1.7473114E1,4.650757E0,3.355957E1,5.470188E2,2.0350635E2,7.762207E0,7.19812E1,4.141485E1,4.7334137E1,3.4570435E1,1.0806807E2,1.2202554E2,5.190674E0,1.48125E1,0E0,0E0,0E0,0E0,0E0,0E0,0E0,0E0,0E0,0E0,0E0,0E0,0E0,0E0,0E0,0E0,0E0,0E0,0E0,0E0,0E0,0E0,0E0,0E0,0E0,0E0,0E0,0E0,0E0,0E0,0E0,0E0,0E0,0E0,0E0,0E0,0E0,0E0,0E0,0E0,0E0,0E0,0E0,0E0,0E0,0E0,0E0,0E0,0E0,0E0,0E0,0E0],"parents":[2147483647,0,0,1,1,2,2,3,3,4,4,5,5,6,6,7,7,8,8,9,9,10,10,11,11,12,12,13,13,14,14,15,15,16,16,17,17,18,18,19,19,20,20,22,22,23,23,24,24,25,25,26,26,27,27,28,28,31,31,32,32,33,33,34,34,35,35,36,36,37,37,38,38,39,39,40,40,41,41,42,42,43,43,44,44,45,45,46,46,47,47,48,48,49,49,50,50,51,51,52,52,53,53,54,54,55,55,56,56],"right_children":[2,4,6,8,10,12,14,16,18,20,22,24,26,28,30,32,34,36,38,40,42,-1,44,46,48,50,52,54,56,-1,-1,58,60,62,64,66,68,70,72,74,76,78,80,82,84,86,88,90,92,94,96,98,100,102,104,106,108,-1,-1,-1,-1,-1,-1,-1,-1,-1,-1,-1,-1,-1,-1,-1,-1,-1,-1,-1,-1,-1,-1,-1,-1,-1,-1,-1,-1,-1,-1,-1,-1,-1,-1,-1,-1,-1,-1,-1,-1,-1,-1,-1,-1,-1,-1,-1,-1,-1,-1,-1,-1],"split_conditions":[5.500712E-1,8.140859E-1,8.140859E-1,1.0054151E0,2.6421862E0,1.0054151E0,2.6421862E0,9.910109E-2,9.910109E-2,-2.9221937E-2,1.0054151E0,1.1137838E0,1.9388845E0,1.0054151E0,3.5941193E0,1.9388845E0,1.9388845E0,1.9388845E0,1.1376145E0,1.0054151E0,1.0054151E0,1.0422549E0,1.1376145E0,6.298019E-2,1.9388845E0,1.4031838E-1,1.1376145E0,1.1137838E0,3.8107088E-1,1.142179E0,4.361122E-1,6.298019E-2,1.1376145E0,6.298019E-2,1.1376145E0,1.0503609E-1,1.1376145E0,1.9388845E0,-2.9221937E-2,2.1184361E-1,1.1376145E0,9.910109E-2,9.910109E-2,-7.9687095E-1,-1.6963891E0,1.1376145E0,1.9388845E0,2.3557316E-1,3.7068617E0,1.1376145E0,1.1376145E0,3.1431491E0,2.692179E0,2.3557316E-1,6.895663E-1,1.1376145E0,1.1376145E0,1.1569912E-1,-1.754036E-1,8.378556E-2,3.4123018E-1,5.1202965E-1,-1.2851558E-2,4.883013E-1,6.8936235E-1,-1.565677E-1,-3.049997E-1,-1.6450691E-1,-9.4764065E-3,-1.7626014E-1,-1.2746826E-2,2.4212445E-1,-3.9513465E-3,-3.509001E-1,-2.918368E-1,-3.8102934E-1,-3.6324102E-1,-2.2864443E-1,-4.3109868E-2,-3.213087E-1,-2.6547712E-1,1.368505E-1,6.549745E-1,2.3550867E-1,8.6583406E-1,7.5865006E-1,9.6271735E-1,3.1991512E-1,8.82498E-1,1.0627836E0,7.145469E-1,1.0976962E0,3.452909E-1,3.6545524E-1,5.967911E-1,-7.009796E-2,9.709177E-2,4.3436107E-1,-1.7421286E-1,7.4414986E-1,3.2122356E-1,-1.4346564E-1,1.432248E-1,2.2979744E-1,6.244146E-1,-3.1993145E-1,-2.6915658E-1,-1.646783E-1,-3.9167468E-2],"split_indices":[1,4,4,6,4,6,4,1,1,3,6,1,9,6,1,9,9,9,11,6,6,0,11,3,9,3,11,1,3,0,0,3,11,3,11,3,11,9,3,1,11,1,1,0,0,11,9,3,1,11,11,1,1,3,3,11,11,0,0,0,0,0,0,0,0,0,0,0,0,0,0,0,0,0,0,0,0,0,0,0,0,0,0,0,0,0,0,0,0,0,0,0,0,0,0,0,0,0,0,0,0,0,0,0,0,0,0,0,0],"split_type":[0,0,0,0,0,0,0,0,0,0,0,0,0,0,0,0,0,0,0,0,0,0,0,0,0,0,0,0,0,0,0,0,0,0,0,0,0,0,0,0,0,0,0,0,0,0,0,0,0,0,0,0,0,0,0,0,0,0,0,0,0,0,0,0,0,0,0,0,0,0,0,0,0,0,0,0,0,0,0,0,0,0,0,0,0,0,0,0,0,0,0,0,0,0,0,0,0,0,0,0,0,0,0,0,0,0,0,0,0],"sum_hessian":[2.4081232E4,1.8135662E4,5.9455713E3,7.6978525E3,1.043781E4,3.5870051E3,2.3585662E3,3.93064E3,3.7672126E3,1.021255E4,2.252594E2,2.0977395E3,1.4892656E3,2.0904438E3,2.6812253E2,2.8864211E3,1.0442188E3,2.9265483E3,8.406644E2,7.8169575E3,2.3955928E3,1.5084172E2,7.441768E1,9.984372E2,1.0993024E3,1.0460426E3,4.4322296E2,8.683887E2,1.222055E3,2.6648096E2,1.6415665E0,2.212102E3,6.7431903E2,7.573093E2,2.8690933E2,2.2772175E3,6.4933075E2,4.760543E2,3.6461017E2,3.72818E3,4.0887773E3,1.1450839E3,1.2505089E3,3.5020084E1,3.9397594E1,3.7044684E2,6.2799036E2,6.7814935E2,4.21153E2,5.00313E2,5.457297E2,2.1522762E2,2.2799535E2,5.5667346E2,3.1171524E2,8.804268E2,3.4162823E2,8.913706E2,1.3207314E3,3.5968546E2,3.1463358E2,3.6369818E2,3.9361118E2,1.4281628E2,1.4409306E2,8.3957007E2,1.4376475E3,3.720884E2,2.7724234E2,3.6606934E2,1.09984955E2,1.1126173E2,2.5334843E2,3.2384458E3,4.89734E2,2.4577898E3,1.6309875E3,8.864459E2,2.586379E2,9.931477E2,2.5736115E2,8.207832E0,2.6812252E1,2.006359E0,3.7391235E1,1.5722559E2,2.1322125E2,2.9256363E2,3.3542676E2,4.2863126E2,2.4951811E2,4.1878186E2,2.3711517E0,2.4222226E2,2.5809073E2,3.1718713E2,2.2854254E2,2.0355424E2,1.1673362E1,2.0665498E2,2.1340364E1,3.874097E2,1.6926375E2,2.0282466E2,1.0889058E2,5.0560248E2,3.7482434E2,1.8458504E2,1.570432E2],"tree_param":{"num_deleted":"0","num_feature":"13","num_nodes":"109","size_leaf_vector":"1"}},{"base_weights":[-1.5663715E-1,-5.658635E-1,6.8423647E-1,-1.592373E-1,-9.117852E-1,1.077579E0,-2.8310696E-2,1.335433E-1,-5.04614E-1,-9.925517E-1,1.4684532E0,1.3724161E0,5.987758E-1,-3.3602926E-1,1.7529521E0,-1.4649756E-1,4.7898445E-1,-6.18843E-1,-1.4069426E-1,-1.0824856E0,-7.14483E-1,1.2635306E0,1.674433E0,1.079287E0,1.525421E0,4.258582E-1,9.64087E-1,9.642155E-2,-7.1189755E-1,1.8259082E0,1.5731149E0,-3.048953E-1,3.4972346E-1,1.0263282E-1,7.7068406E-1,-2.8569743E-1,-8.398786E-1,-4.27964E-1,1.3083251E-1,-1.0254699E0,-1.1350417E0,-5.2240264E-1,-9.0298206E-1,8.298235E-1,1.4293379E0,1.7437066E0,1.0264828E0,8.0495644E-1,1.3288965E0,1.3421518E0,1.658623E0,8.755699E-1,-4.7353644E-2,6.944659E-1,1.1957128E0,-2.7998337E-1,6.509298E-1,-8.737351E-1,-3.1231138E-1,1.4059473E0,5.5704755E-1,1.5852059E0,6.842435E-2,2.6348548E-3,-1.6844037E-1,3.799538E-2,2.3222838E-1,1.1920981E-1,-1.476843E-2,3.6521113E-1,1.5679054E-1,-1.7335701E-1,-4.3802788E-3,-2.7903885E-1,-2.1047239E-1,3.0669743E-1,-1.321801E-1,-4.5248367E-2,1.3959782E-1,-3.2270432E-1,-2.8469995E-1,-3.4859505E-1,-3.281923E-1,-2.1189405E-1,-8.293471E-2,-2.8041688E-1,-2.2417624E-1,1.2178858E-1,3.4567183E-1,-1.0056609E-1,4.4303635E-1,1.6558835E-1,5.26092E-1,4.4472972E-1,-4.7679584E-2,3.3683142E-1,1.8866616E-1,3.628562E-1,4.588742E-1,3.6533377E-1,4.6457335E-1,4.5463073E-1,5.309077E-1,2.840759E-1,-8.823694E-2,-1.1898733E-1,2.6473405E-2,6.912886E-2,2.5395602E-1,1.3661218E-1,3.818451E-1,-1.4781936E-1,6.0574647E-2,9.909119E-2,2.914918E-1,-2.8270122E-1,-2.3412442E-1,-1.7045593E-1,-4.2789012E-2,4.4737053E-1,1.0210985E-1,4.166462E-1,5.3489965E-1],"categories":[],"categories_nodes":[],"categories_segments":[],"categories_sizes":[],"default_left":[0,0,0,0,0,0,0,0,0,0,0,0,0,0,0,0,0,0,0,0,0,0,0,0,0,0,0,0,0,0,0,0,0,0,0,0,0,0,0,0,0,0,0,0,0,0,0,0,0,0,0,0,0,0,0,0,0,0,0,0,0,0,0,0,0,0,0,0,0,0,0,0,0,0,0,0,0,0,0,0,0,0,0,0,0,0,0,0,0,0,0,0,0,0,0,0,0,0,0,0,0,0,0,0,0,0,0,0,0,0,0,0,0,0,0,0,0,0,0,0,0,0,0],"id":1,"left_children":[1,3,5,7,9,11,13,15,17,19,21,23,25,27,29,31,33,35,37,39,41,43,45,47,49,51,53,55,57,59,61,63,65,67,69,71,73,75,77,79,81,83,85,87,89,91,93,95,97,99,101,103,105,107,109,111,113,115,117,119,-1,121,-1,-1,-1,-1,-1,-1,-1,-1,-1,-1,-1,-1,-1,-1,-1,-1,-1,-1,-1,-1,-1,-1,-1,-1,-1,-1,-1,-1,-1,-1,-1,-1,-1,-1,-1,-1,-1,-1,-1,-1,-1,-1,-1,-1,-1,-1,-1,-1,-1,-1,-1,-1,-1,-1,-1,-1,-1,-1,-1,-1,-1],"loss_changes":[7.9336597E3,2.1812407E3,2.115406E3,7.2102924E2,1.6123301E3,6.85687E2,1.4725674E3,3.7342923E2,1.3590112E2,2.0191357E2,9.508972E0,1.3330518E2,1.16773254E2,3.7241287E2,2.3199463E0,1.6770534E2,1.8964658E2,1.8307874E2,6.111555E1,1.718164E1,7.1350525E1,9.034683E0,4.236969E0,6.9826904E1,4.597705E1,2.6837128E2,3.6340515E1,2.2269112E2,7.898779E1,9.6398926E-1,1.6132812E0,1.3013307E2,4.8788605E1,3.3846386E1,1.072218E2,7.8755394E1,1.8021118E1,7.4255524E0,3.8056446E1,1.0293945E1,2.2434082E0,4.435379E1,4.243408E0,5.229969E0,8.988174E0,4.510498E-1,8.559053E0,2.7036957E1,1.110022E1,1.958606E1,1.5436523E1,5.4237946E1,2.9177998E1,1.937973E1,1.7616852E1,6.527461E1,4.403415E1,4.845764E0,1.5326294E1,1.5823631E0,0E0,2.1921692E0,0E0,0E0,0E0,0E0,0E0,0E0,0E0,0E0,0E0,0E0,0E0,0E0,0E0,0E0,0E0,0E0,0E0,0E0,0E0,0E0,0E0,0E0,0E0,0E0,0E0,0E0,0E0,0E0,0E0,0E0,0E0,0E0,0E0,0E0,0E0,0E0,0E0,0E0,0E0,0E0,0E0,0E0,0E0,0E0,0E0,0E0,0E0,0E0,0E0,0E0,0E0,0E0,0E0,0E0,0E0,0E0,0E0,0E0,0E0,0E0,0E0],"parents":[2147483647,0,0,1,1,2,2,3,3,4,4,5,5,6,6,7,7,8,8,9,9,10,10,11,11,12,12,13,13,14,14,15,15,16,16,17,17,18,18,19,19,20,20,21,21,22,22,23,23,24,24,25,25,26,26,27,27,28,28,29,29,30,30,31,31,32,32,33,33,34,34,35,35,36,36,37,37,38,38,39,39,40,40,41,41,42,42,43,43,44,44,45,45,46,46,47,47,48,48,49,49,50,50,51,51,52,52,53,53,54,54,55,55,56,56,57,57,58,58,59,59,61,61],"right_children":[2,4,6,8,10,12,14,16,18,20,22,24,26,28,30,32,34,36,38,40,42,44,46,48,50,52,54,56,58,60,62,64,66,68,70,72,74,76,78,80,82,84,86,88,90,92,94,96,98,100,102,104,106,108,110,112,114,116,118,120,-1,122,-1,-1,-1,-1,-1,-1,-1,-1,-1,-1,-1,-1,-1,-1,-1,-1,-1,-1,-1,-1,-1,-1,-1,-1,-1,-1,-1,-1,-1,-1,-1,-1,-1,-1,-1,-1,-1,-1,-1,-1,-1,-1,-1,-1,-1,-1,-1,-1,-1,-1,-1,-1,-1,-1,-1,-1,-1,-1,-1,-1,-1],"split_conditions":[4.3732867E-1,8.140859E-1,8.140859E-1,1.0054151E0,2.6421862E0,1.0054151E0,2.6421862E0,1.1376145E0,1.9388845E0,-2.9221937E-2,5.3902185E-1,8.8829875E-1,1.9388845E0,1.0054151E0,1.0054151E0,1.9388845E0,-3.51869E-1,1.0503609E-1,-3.51869E-1,1.0054151E0,1.0054151E0,-6.517641E-1,1.6029549E0,1.1376145E0,1.1376145E0,-2.9221937E-2,1.1376145E0,1.0010413E0,4.8279002E-1,-1.4701236E0,1.9273907E0,2.0019192E-1,-1.3641429E-2,2.3557316E-1,-2.9221937E-2,-3.51869E-1,1.1376145E0,-2.043007E0,1.1376145E0,1.1376145E0,1.1376145E0,1.1376145E0,9.910109E-2,1.1376145E0,-2.308561E0,-2.670867E0,1.0054151E0,1.4031838E-1,1.9388845E0,1.9388845E0,1.3392688E0,3.1431491E0,7.755562E-1,7.755562E-1,-1.3281611E0,5.0048566E-1,1.1376145E0,1.1376145E0,8.8829875E-1,2.3539515E0,5.5704755E-1,6.609646E-1,6.842435E-2,2.6348548E-3,-1.6844037E-1,3.799538E-2,2.3222838E-1,1.1920981E-1,-1.476843E-2,3.6521113E-1,1.5679054E-1,-1.7335701E-1,-4.3802788E-3,-2.7903885E-1,-2.1047239E-1,3.0669743E-1,-1.321801E-1,-4.5248367E-2,1.3959782E-1,-3.2270432E-1,-2.8469995E-1,-3.4859505E-1,-3.281923E-1,-2.1189405E-1,-8.293471E-2,-2.8041688E-1,-2.2417624E-1,1.2178858E-1,3.4567183E-1,-1.0056609E-1,4.4303635E-1,1.6558835E-1,5.26092E-1,4.4472972E-1,-4.7679584E-2,3.3683142E-1,1.8866616E-1,3.628562E-1,4.588742E-1,3.6533377E-1,4.6457335E-1,4.5463073E-1,5.309077E-1,2.840759E-1,-8.823694E-2,-1.1898733E-1,2.6473405E-2,6.912886E-2,2.5395602E-1,1.3661218E-1,3.818451E-1,-1.4781936E-1,6.0574647E-2,9.909119E-2,2.914918E-1,-2.8270122E-1,-2.3412442E-1,-1.7045593E-1,-4.2789012E-2,4.4737053E-1,1.0210985E-1,4.166462E-1,5.3489965E-1],"split_indices":[1,4,4,6,4,6,4,11,9,3,3,1,9,6,6,9,1,3,1,6,6,1,3,11,11,3,11,1,3,7,3,3,1,3,3,1,11,1,11,11,11,11,1,11,0,0,6,3,9,9,1,1,1,1,7,3,11,11,1,1,0,3,0,0,0,0,0,0,0,0,0,0,0,0,0,0,0,0,0,0,0,0,0,0,0,0,0,0,0,0,0,0,0,0,0,0,0,0,0,0,0,0,0,0,0,0,0,0,0,0,0,0,0,0,0,0,0,0,0,0,0,0,0],"split_type":[0,0,0,0,0,0,0,0,0,0,0,0,0,0,0,0,0,0,0,0,0,0,0,0,0,0,0,0,0,0,0,0,0,0,0,0,0,0,0,0,0,0,0,0,0,0,0,0,0,0,0,0,0,0,0,0,0,0,0,0,0,0,0,0,0,0,0,0,0,0,0,0,0,0,0,0,0,0,0,0,0,0,0,0,0,0,0,0,0,0,0,0,0,0,0,0,0,0,0,0,0,0,0,0,0,0,0,0,0,0,0,0,0,0,0,0,0,0,0,0,0,0,0],"sum_hessian":[2.3053627E4,1.550713E4,7.5464976E3,7.128793E3,8.378337E3,4.8620312E3,2.684466E3,3.8585015E3,3.2702913E3,8.103936E3,2.744005E2,3.0079382E3,1.8540929E3,2.2897212E3,3.9474496E2,2.131291E3,1.7272106E3,2.4884907E3,7.8180066E2,6.1212783E3,1.982658E3,1.4112958E2,1.3327092E2,1.0343561E3,1.9735822E3,1.2598955E3,5.941974E2,1.0650658E3,1.2246554E3,2.7431015E2,1.204348E2,1.6158759E3,5.154151E2,7.5476404E2,9.724466E2,9.934509E2,1.4950398E3,3.7960754E2,4.021931E2,2.9459102E3,3.175368E3,9.8386804E2,9.987899E2,4.0692837E1,1.00436745E2,1.1887108E2,1.4399839E1,4.947886E2,5.395675E2,8.3533813E2,1.138244E3,6.45552E2,6.143435E2,2.7642572E2,3.1777164E2,6.347126E2,4.3035324E2,8.707884E2,3.53867E2,2.1996372E1,2.5231378E2,1.1918484E2,1.2499653E0,7.274646E2,8.8841125E2,3.386834E2,1.7673169E2,2.5610202E2,4.98662E2,3.4580804E2,6.2663855E2,4.7760602E2,5.158449E2,9.012201E2,5.9381964E2,2.5887485E0,3.770188E2,2.18638E2,1.8355511E2,1.7703875E3,1.1755228E3,1.9009685E3,1.2743993E3,5.6186444E2,4.2200363E2,8.2552686E2,1.7326306E2,1.8556633E1,2.2136202E1,2.4712625E0,9.796548E1,1.4501957E0,1.1742088E2,1.0218795E1,4.181044E0,1.7447478E2,3.203138E2,3.4272595E2,1.9684155E2,5.2557574E2,3.0976242E2,5.036264E2,6.346176E2,6.086176E2,3.6934437E1,1.7126875E2,4.4307477E2,6.8844055E1,2.0758167E2,3.062473E1,2.871469E2,4.4030505E2,1.9440753E2,2.1621977E2,2.1413345E2,4.9661517E2,3.7417322E2,1.4016035E2,2.1370665E2,1.9996428E1,1.9999444E0,6.3830322E1,5.535451E1],"tree_param":{"num_deleted":"0","num_feature":"13","num_nodes":"123","size_leaf_vector":"1"}},{"base_weights":[-1.3470748E-1,-4.6719095E-1,4.772037E-1,-1.24054775E-1,-8.082188E-1,7.3163956E-1,-2.947826E-2,8.7563425E-2,-4.0024287E-1,-8.8433015E-1,1.0377454E0,9.4471484E-1,3.9528713E-1,-2.653975E-1,1.3214447E0,-1.6880417E-1,2.94521E-1,-5.635144E-1,-1.8239364E-1,-9.873509E-1,-5.917645E-1,1.1932266E0,7.278173E-1,8.1242687E-1,1.1876795E0,1.8900387E-1,6.007777E-1,6.1749578E-2,-5.906814E-1,1.3853058E0,1.1684974E0,-3.567889E-1,6.984061E-2,1.4680134E-1,6.5371054E-1,-6.536714E-1,-2.770099E-1,-3.4247726E-1,6.909552E-2,-9.204548E-1,-1.0506806E0,-4.117391E-1,-7.8395015E-1,9.841872E-1,1.3585495E0,4.024238E-2,8.340658E-1,1.022103E0,6.85773E-1,1.2193978E0,3.2493383E-1,2.3642933E-1,-6.1734277E-1,6.705933E-1,-4.269955E-2,-1.2450454E-1,6.398581E-1,-7.573504E-1,-2.4396509E-1,9.371551E-1,1.403414E0,1.0135268E0,1.3266124E0,-1.3717401E-1,-9.472721E-3,-1.2052033E-2,1.11266084E-1,1.555983E-1,-7.2589755E-2,1.2961805E-1,2.5882056E-1,-1.3301569E-1,-2.4512294E-1,-1.3772275E-1,-3.2725982E-2,-1.2849796E-1,-3.3885576E-2,1.1762514E-1,-3.0211052E-2,-2.8597122E-1,-2.2722356E-1,-3.251627E-1,-3.0028778E-1,-1.6389485E-1,-2.1452945E-2,-1.9349562E-1,-2.4988796E-1,1.4629285E-1,3.282158E-1,1.8893299E-1,4.1352338E-1,8.75205E-2,-1.9750175E-1,3.1762093E-1,1.6938299E-1,2.0861137E-1,3.1973913E-1,7.516062E-2,3.0844897E-1,3.29862E-1,3.920439E-1,1.6568708E-1,-2.9986694E-1,-2.431269E-2,1.1878191E-1,-5.0676815E-2,-2.4146284E-1,1.127613E-1,2.447769E-1,3.32829E-2,-2.7160007E-1,-1.1924567E-1,6.071121E-2,1.3091753E-1,3.4116906E-1,-2.4987814E-1,-1.975222E-1,-1.2762675E-1,-1.19373035E-2,3.213194E-1,-1.649184E-2,2.3133679E-1,4.2372987E-1,2.748127E-1,4.6450904E-1,4.0912926E-1,9.21324E-2],"categories":[],"categories_nodes":[],"categories_segments":[],"categories_sizes":[],"default_left":[0,0,0,0,0,0,0,0,0,0,0,0,0,0,0,0,0,0,0,0,0,0,0,0,0,0,0,0,0,0,0,0,0,0,0,0,0,0,0,0,0,0,0,0,0,0,0,0,0,0,0,0,0,0,0,0,0,0,0,0,0,0,0,0,0,0,0,0,0,0,0,0,0,0,0,0,0,0,0,0,0,0,0,0,0,0,0,0,0,0,0,0,0,0,0,0,0,0,0,0,0,0,0,0,0,0,0,0,0,0,0,0,0,0,0,0,0,0,0,0,0,0,0,0,0,0,0],"id":2,"left_children":[1,3,5,7,9,11,13,15,17,19,21,23,25,27,29,31,33,35,37,39,41,43,45,47,49,51,53,55,57,59,61,63,65,67,69,71,73,75,77,79,81,83,85,87,89,91,93,95,97,99,101,103,105,107,109,111,113,115,117,119,121,123,125,-1,-1,-1,-1,-1,-1,-1,-1,-1,-1,-1,-1,-1,-1,-1,-1,-1,-1,-1,-1,-1,-1,-1,-1,-1,-1,-1,-1,-1,-1,-1,-1,-1,-1,-1,-1,-1,-1,-1,-1,-1,-1,-1,-1,-1,-1,-1,-1,-1,-1,-1,-1,-1,-1,-1,-1,-1,-1,-1,-1,-1,-1,-1,-1],"loss_changes":[4.323835E3,1.6112708E3,9.6462146E2,4.0127246E2,9.7121924E2,3.5661035E2,7.978326E2,2.063202E2,1.0583273E2,1.993418E2,1.2331787E1,9.702124E1,8.184323E1,2.2681354E2,2.0164795E0,7.795795E1,1.1406181E2,4.3780945E1,5.1450806E1,1.9810059E1,5.9530396E1,4.9130554E0,6.8391533E0,5.1802124E1,2.8954224E1,3.7099155E1,4.352118E1,1.1457997E2,6.1569824E1,7.7175903E-1,1.4981842E0,3.1737679E1,2.5393896E1,2.2070886E2,2.8661896E1,4.4096252E1,1.2457703E1,1.53352585E1,2.7333977E1,1.2068726E1,3.0610352E0,4.0955826E1,5.1538086E0,4.021492E0,5.5563354E-1,2.5888686E0,4.3322105E0,9.858582E0,1.838695E2,9.39856E0,1.2415712E1,4.6284695E1,4.401222E0,3.7103607E1,1.2783948E1,7.192064E1,2.5742554E1,4.84494E0,1.2891397E1,1.7856712E0,3.088684E-1,1.8573532E0,1.6336136E0,0E0,0E0,0E0,0E0,0E0,0E0,0E0,0E0,0E0,0E0,0E0,0E0,0E0,0E0,0E0,0E0,0E0,0E0,0E0,0E0,0E0,0E0,0E0,0E0,0E0,0E0,0E0,0E0,0E0,0E0,0E0,0E0,0E0,0E0,0E0,0E0,0E0,0E0,0E0,0E0,0E0,0E0,0E0,0E0,0E0,0E0,0E0,0E0,0E0,0E0,0E0,0E0,0E0,0E0,0E0,0E0,0E0,0E0,0E0,0E0,0E0,0E0,0E0,0E0],"parents":[2147483647,0,0,1,1,2,2,3,3,4,4,5,5,6,6,7,7,8,8,9,9,10,10,11,11,12,12,13,13,14,14,15,15,16,16,17,17,18,18,19,19,20,20,21,21,22,22,23,23,24,24,25,25,26,26,27,27,28,28,29,29,30,30,31,31,32,32,33,33,34,34,35,35,36,36,37,37,38,38,39,39,40,40,41,41,42,42,43,43,44,44,45,45,46,46,47,47,48,48,49,49,50,50,51,51,52,52,53,53,54,54,55,55,56,56,57,57,58,58,59,59,60,60,61,61,62,62],"right_children":[2,4,6,8,10,12,14,16,18,20,22,24,26,28,30,32,34,36,38,40,42,44,46,48,50,52,54,56,58,60,62,64,66,68,70,72,74,76,78,80,82,84,86,88,90,92,94,96,98,100,102,104,106,108,110,112,114,116,118,120,122,124,126,-1,-1,-1,-1,-1,-1,-1,-1,-1,-1,-1,-1,-1,-1,-1,-1,-1,-1,-1,-1,-1,-1,-1,-1,-1,-1,-1,-1,-1,-1,-1,-1,-1,-1,-1,-1,-1,-1,-1,-1,-1,-1,-1,-1,-1,-1,-1,-1,-1,-1,-1,-1,-1,-1,-1,-1,-1,-1,-1,-1,-1,-1,-1,-1],"split_conditions":[4.3732867E-1,8.140859E-1,8.140859E-1,1.0054151E0,2.6421862E0,1.0054151E0,2.6421862E0,-3.51869E-1,1.1376145E0,-2.9221937E-2,1.0054151E0,1.3392688E0,1.1376145E0,1.0054151E0,1.0054151E0,1.1376145E0,1.9388845E0,1.9388845E0,-1.8951976E-1,1.0054151E0,1.0054151E0,1.1376145E0,-1.198831E0,-2.9221937E-2,3.1431491E0,3.1431491E0,2.692179E0,1.3392688E0,3.8107088E-1,-1.8560365E0,6.609646E-1,1.9388845E0,1.9388845E0,6.298019E-2,1.1376145E0,3.3481902E-1,-3.51869E-1,1.9388845E0,1.0503609E-1,9.910109E-2,1.1376145E0,-1.3641429E-2,5.7144076E-1,-8.028391E-1,-2.308561E0,1.8875599E0,8.6727154E-1,-1.2193398E0,1.9388845E0,1.1376145E0,4.1578317E0,8.8829875E-1,-2.9221937E-2,8.8829875E-1,3.8196044E0,1.1376145E0,1.9388845E0,1.1376145E0,1.1376145E0,2.3539515E0,-2.1211615E0,1.2164909E0,1.7607056E0,-1.3717401E-1,-9.472721E-3,-1.2052033E-2,1.11266084E-1,1.555983E-1,-7.2589755E-2,1.2961805E-1,2.5882056E-1,-1.3301569E-1,-2.4512294E-1,-1.3772275E-1,-3.2725982E-2,-1.2849796E-1,-3.3885576E-2,1.1762514E-1,-3.0211052E-2,-2.8597122E-1,-2.2722356E-1,-3.251627E-1,-3.0028778E-1,-1.6389485E-1,-2.1452945E-2,-1.9349562E-1,-2.4988796E-1,1.4629285E-1,3.282158E-1,1.8893299E-1,4.1352338E-1,8.75205E-2,-1.9750175E-1,3.1762093E-1,1.6938299E-1,2.0861137E-1,3.1973913E-1,7.516062E-2,3.0844897E-1,3.29862E-1,3.920439E-1,1.6568708E-1,-2.9986694E-1,-2.431269E-2,1.1878191E-1,-5.0676815E-2,-2.4146284E-1,1.127613E-1,2.447769E-1,3.32829E-2,-2.7160007E-1,-1.1924567E-1,6.071121E-2,1.3091753E-1,3.4116906E-1,-2.4987814E-1,-1.975222E-1,-1.2762675E-1,-1.19373035E-2,3.213194E-1,-1.649184E-2,2.3133679E-1,4.2372987E-1,2.748127E-1,4.6450904E-1,4.0912926E-1,9.21324E-2],"split_indices":[1,4,4,6,4,6,4,1,11,3,6,1,11,6,6,11,9,9,1,6,6,11,7,3,1,1,1,1,3,7,3,9,9,3,11,3,1,9,3,1,11,1,5,1,0,10,8,7,9,11,1,1,3,1,1,11,9,11,11,1,0,7,3,0,0,0,0,0,0,0,0,0,0,0,0,0,0,0,0,0,0,0,0,0,0,0,0,0,0,0,0,0,0,0,0,0,0,0,0,0,0,0,0,0,0,0,0,0,0,0,0,0,0,0,0,0,0,0,0,0,0,0,0,0,0,0,0],"split_type":[0,0,0,0,0,0,0,0,0,0,0,0,0,0,0,0,0,0,0,0,0,0,0,0,0,0,0,0,0,0,0,0,0,0,0,0,0,0,0,0,0,0,0,0,0,0,0,0,0,0,0,0,0,0,0,0,0,0,0,0,0,0,0,0,0,0,0,0,0,0,0,0,0,0,0,0,0,0,0,0,0,0,0,0,0,0,0,0,0,0,0,0,0,0,0,0,0,0,0,0,0,0,0,0,0,0,0,0,0,0,0,0,0,0,0,0,0,0,0,0,0,0,0,0,0,0,0],"sum_hessian":[2.1250436E4,1.3769163E4,7.481273E3,6.8640454E3,6.9051177E3,4.980045E3,2.501228E3,3.8866992E3,2.9773464E3,6.6321855E3,2.7293222E2,3.0476108E3,1.9324338E3,2.130049E3,3.7117886E2,1.7361888E3,2.1505103E3,1.7009489E3,1.2763976E3,4.9032397E3,1.7289458E3,1.7985474E2,9.307749E1,1.9760479E3,1.071563E3,9.653149E2,9.67119E2,1.0623871E3,1.0676621E3,2.561639E2,1.1501496E2,9.708992E2,7.652897E2,1.524823E3,6.2568726E2,1.2928383E3,4.0811053E2,7.7971423E2,4.9668335E2,2.392035E3,2.5112046E3,8.9433813E2,8.346077E2,8.2496605E1,9.735814E1,1.2642405E1,8.043509E1,7.414703E2,1.2345775E3,1.033166E3,3.8396976E1,9.1236096E2,5.2953938E1,8.724213E2,9.469767E1,8.04106E2,2.58281E2,7.202489E2,3.4741324E2,1.199754E1,2.4416635E2,6.1827274E1,5.3187687E1,7.414581E2,2.2944107E2,5.611062E2,2.041835E2,7.79188E2,7.456351E2,3.0516083E2,3.2052646E2,5.669476E2,7.258907E2,1.9497777E2,2.1313277E2,5.668351E2,2.1287914E2,1.706904E2,3.2599295E2,1.9875564E3,4.0447858E2,1.4933877E3,1.017817E3,6.4041675E2,2.5392139E2,2.2129517E2,6.1331256E2,1.593153E1,6.656507E1,3.4507327E0,9.39074E1,9.72408E0,2.918325E0,4.2265347E1,3.8169743E1,8.945623E1,6.5201404E2,5.44348E2,6.902295E2,4.4145343E2,5.917126E2,3.326915E1,5.127826E0,3.0527246E2,6.0708844E2,1.6175846E1,3.677809E1,2.893064E2,5.831149E2,8.112076E1,1.3576915E1,4.3805783E2,3.660482E2,1.846296E2,7.3651405E1,4.0413574E2,3.161132E2,1.8336555E2,1.6404767E2,1.0500681E1,1.4968599E0,4.6502028E0,2.3951616E2,5.458993E1,7.23734E0,5.099182E1,2.195868E0],"tree_param":{"num_deleted":"0","num_feature":"13","num_nodes":"127","size_leaf_vector":"1"}},{"base_weights":[-1.1245975E-1,-4.4409555E-1,2.790216E-1,-1.6245441E-1,-7.532728E-1,4.7567973E-1,-1.1341436E-1,-1.1325171E-2,-3.696447E-1,-8.1612694E-1,7.4276966E-1,6.4363503E-1,2.2381575E-1,-2.8581217E-1,1.0712901E0,-1.7156066E-1,1.7012472E-1,-4.6490607E-1,-1.0620578E-1,-9.223684E-1,-5.3732663E-1,8.873631E-1,4.9101025E-1,4.1079503E-1,8.080755E-1,1.146741E-1,4.626852E-1,-4.8888656E-1,7.3488854E-2,1.148238E0,8.97669E-1,-2.6350957E-1,8.783169E-2,4.0319028E-1,4.4254012E-2,-2.12422E-1,-6.573134E-1,-2.6391554E-1,7.01992E-2,-8.50981E-1,-9.921117E-1,-3.895531E-1,-7.053568E-1,6.714371E-1,1.0806836E0,3.9256582E-1,1.1519579E0,2.5371784E-1,5.6402147E-1,6.65547E-1,9.1813004E-1,3.8878506E-1,-1.8275973E-1,5.489316E-1,2.2032079E-1,-2.7797937E-1,-7.1124214E-1,3.223489E-1,-2.3301865E-1,7.383274E-1,1.1680552E0,7.356393E-1,1.0893378E0,-3.1533167E-2,-1.23290166E-1,1.1472402E-1,-1.3492751E-3,8.400878E-2,1.7279026E-1,-6.9086395E-2,1.1545983E-1,-1.1842433E-1,1.1292772E-2,-2.2139046E-1,-1.6453595E-1,-5.190295E-3,-1.054246E-1,4.1795764E-2,-2.2779034E-1,-2.7420533E-1,-2.2727177E-1,-3.07925E-1,-2.823775E-1,-1.6172254E-1,-6.0748942E-2,-1.6812922E-1,-2.2781755E-1,1.1128023E-1,2.868465E-1,3.2686365E-1,8.589581E-2,1.3647324E-1,-2.2999795E-1,8.871071E-2,4.1716796E-1,4.376812E-2,1.4829293E-1,1.7876697E-1,4.5400858E-2,1.6358949E-1,2.5129133E-1,9.419048E-2,2.842808E-1,7.4530065E-2,1.6816367E-1,-1.08471274E-1,-1.9441374E-2,4.0089134E-2,1.9828701E-1,8.016161E-2,-1.983089E-1,-1.579426E-1,1.4726961E-2,-2.4332716E-1,-1.6558081E-1,2.8442651E-2,1.6624765E-1,-1.2944856E-1,-1.1901856E-2,3.04801E-1,-3.9240643E-3,3.5418996E-1,2.2197352E-1,1.6294608E-1,3.2637656E-1,3.382934E-1,-8.6282395E-2],"categories":[],"categories_nodes":[],"categories_segments":[],"categories_sizes":[],"default_left":[0,0,0,0,0,0,0,0,0,0,0,0,0,0,0,0,0,0,0,0,0,0,0,0,0,0,0,0,0,0,0,0,0,0,0,0,0,0,0,0,0,0,0,0,0,0,0,0,0,0,0,0,0,0,0,0,0,0,0,0,0,0,0,0,0,0,0,0,0,0,0,0,0,0,0,0,0,0,0,0,0,0,0,0,0,0,0,0,0,0,0,0,0,0,0,0,0,0,0,0,0,0,0,0,0,0,0,0,0,0,0,0,0,0,0,0,0,0,0,0,0,0,0,0,0,0,0],"id":3,"left_children":[1,3,5,7,9,11,13,15,17,19,21,23,25,27,29,31,33,35,37,39,41,43,45,47,49,51,53,55,57,59,61,63,65,67,69,71,73,75,77,79,81,83,85,87,89,91,93,95,97,99,101,103,105,107,109,111,113,115,117,119,121,123,125,-1,-1,-1,-1,-1,-1,-1,-1,-1,-1,-1,-1,-1,-1,-1,-1,-1,-1,-1,-1,-1,-1,-1,-1,-1,-1,-1,-1,-1,-1,-1,-1,-1,-1,-1,-1,-1,-1,-1,-1,-1,-1,-1,-1,-1,-1,-1,-1,-1,-1,-1,-1,-1,-1,-1,-1,-1,-1,-1,-1,-1,-1,-1,-1],"loss_changes":[2.534683E3,9.2022534E2,6.9107794E2,1.7322449E2,4.7435107E2,2.5218713E2,6.109653E2,9.306631E1,5.850656E1,1.4273071E2,6.9780197E0,1.366665E2,6.2201622E1,1.9053793E2,4.0463257E0,4.0564865E1,4.401952E1,8.309476E1,1.7294231E1,1.6580566E1,3.2913574E1,4.6226044E0,4.527666E0,3.555162E1,3.2266968E1,1.3380984E2,1.552626E1,7.803552E1,7.2055E1,1.2475586E0,2.9653244E0,2.9274689E1,1.2121441E1,1.1037827E1,9.134186E1,3.386654E1,8.128479E0,7.073143E0,1.6956507E1,9.532715E0,2.1116943E0,1.9843987E1,4.4625244E0,5.049505E0,1.5235138E-1,5.2726736E0,1.5102406E0,1.8972733E1,9.772339E0,1.8517426E1,2.0715942E1,2.0447296E1,1.6584042E1,2.5566269E1,8.363952E0,6.974298E1,1.2459259E1,2.744003E1,1.623198E1,3.0796547E0,4.5144653E-1,4.074707E0,3.1452904E0,0E0,0E0,0E0,0E0,0E0,0E0,0E0,0E0,0E0,0E0,0E0,0E0,0E0,0E0,0E0,0E0,0E0,0E0,0E0,0E0,0E0,0E0,0E0,0E0,0E0,0E0,0E0,0E0,0E0,0E0,0E0,0E0,0E0,0E0,0E0,0E0,0E0,0E0,0E0,0E0,0E0,0E0,0E0,0E0,0E0,0E0,0E0,0E0,0E0,0E0,0E0,0E0,0E0,0E0,0E0,0E0,0E0,0E0,0E0,0E0,0E0,0E0,0E0,0E0],"parents":[2147483647,0,0,1,1,2,2,3,3,4,4,5,5,6,6,7,7,8,8,9,9,10,10,11,11,12,12,13,13,14,14,15,15,16,16,17,17,18,18,19,19,20,20,21,21,22,22,23,23,24,24,25,25,26,26,27,27,28,28,29,29,30,30,31,31,32,32,33,33,34,34,35,35,36,36,37,37,38,38,39,39,40,40,41,41,42,42,43,43,44,44,45,45,46,46,47,47,48,48,49,49,50,50,51,51,52,52,53,53,54,54,55,55,56,56,57,57,58,58,59,59,60,60,61,61,62,62],"right_children":[2,4,6,8,10,12,14,16,18,20,22,24,26,28,30,32,34,36,38,40,42,44,46,48,50,52,54,56,58,60,62,64,66,68,70,72,74,76,78,80,82,84,86,88,90,92,94,96,98,100,102,104,106,108,110,112,114,116,118,120,122,124,126,-1,-1,-1,-1,-1,-1,-1,-1,-1,-1,-1,-1,-1,-1,-1,-1,-1,-1,-1,-1,-1,-1,-1,-1,-1,-1,-1,-1,-1,-1,-1,-1,-1,-1,-1,-1,-1,-1,-1,-1,-1,-1,-1,-1,-1,-1,-1,-1,-1,-1,-1,-1,-1,-1,-1,-1,-1,-1,-1,-1,-1,-1,-1,-1],"split_conditions":[2.1184361E-1,8.140859E-1,8.140859E-1,1.0054151E0,2.6421862E0,1.0054151E0,2.6421862E0,1.1376145E0,1.9388845E0,-2.9221937E-2,1.0054151E0,7.755562E-1,1.9388845E0,-2.9221937E-2,1.0054151E0,1.9388845E0,-2.9221937E-2,1.0503609E-1,1.1376145E0,1.0054151E0,1.0054151E0,-2.9221937E-2,9.910109E-2,1.1376145E0,1.1376145E0,-2.9221937E-2,1.2453051E0,1.0054151E0,1.0054151E0,-1.7901186E0,6.609646E-1,2.0019192E-1,-8.037221E-1,-2.3912647E-1,1.9388845E0,1.1376145E0,1.1376145E0,5.7144076E-1,1.5340382E0,1.1376145E0,1.1376145E0,1.1376145E0,5.7144076E-1,1.1376145E0,1.5577264E0,1.6029549E0,-9.7177726E-1,1.9388845E0,1.3144978E0,1.4520113E0,-1.6963891E0,2.6412764E-1,7.755562E-1,7.3839617E-1,2.917664E0,7.755562E-1,1.0010413E0,1.1376145E0,8.8829875E-1,6.3985926E-1,1.9516565E0,5.577159E-1,1.9764928E0,-3.1533167E-2,-1.23290166E-1,1.1472402E-1,-1.3492751E-3,8.400878E-2,1.7279026E-1,-6.9086395E-2,1.1545983E-1,-1.1842433E-1,1.1292772E-2,-2.2139046E-1,-1.6453595E-1,-5.190295E-3,-1.054246E-1,4.1795764E-2,-2.2779034E-1,-2.7420533E-1,-2.2727177E-1,-3.07925E-1,-2.823775E-1,-1.6172254E-1,-6.0748942E-2,-1.6812922E-1,-2.2781755E-1,1.1128023E-1,2.868465E-1,3.2686365E-1,8.589581E-2,1.3647324E-1,-2.2999795E-1,8.871071E-2,4.1716796E-1,4.376812E-2,1.4829293E-1,1.7876697E-1,4.5400858E-2,1.6358949E-1,2.5129133E-1,9.419048E-2,2.842808E-1,7.4530065E-2,1.6816367E-1,-1.08471274E-1,-1.9441374E-2,4.0089134E-2,1.9828701E-1,8.016161E-2,-1.983089E-1,-1.579426E-1,1.4726961E-2,-2.4332716E-1,-1.6558081E-1,2.8442651E-2,1.6624765E-1,-1.2944856E-1,-1.1901856E-2,3.04801E-1,-3.9240643E-3,3.5418996E-1,2.2197352E-1,1.6294608E-1,3.2637656E-1,3.382934E-1,-8.6282395E-2],"split_indices":[1,4,4,6,4,6,4,11,9,3,6,1,9,3,6,9,3,3,11,6,6,3,1,11,11,3,3,6,6,7,3,3,7,1,9,11,11,5,3,11,11,11,5,11,7,3,0,9,0,1,0,7,1,3,1,1,1,11,1,0,0,7,3,0,0,0,0,0,0,0,0,0,0,0,0,0,0,0,0,0,0,0,0,0,0,0,0,0,0,0,0,0,0,0,0,0,0,0,0,0,0,0,0,0,0,0,0,0,0,0,0,0,0,0,0,0,0,0,0,0,0,0,0,0,0,0,0],"split_type":[0,0,0,0,0,0,0,0,0,0,0,0,0,0,0,0,0,0,0,0,0,0,0,0,0,0,0,0,0,0,0,0,0,0,0,0,0,0,0,0,0,0,0,0,0,0,0,0,0,0,0,0,0,0,0,0,0,0,0,0,0,0,0,0,0,0,0,0,0,0,0,0,0,0,0,0,0,0,0,0,0,0,0,0,0,0,0,0,0,0,0,0,0,0,0,0,0,0,0,0,0,0,0,0,0,0,0,0,0,0,0,0,0,0,0,0,0,0,0,0,0,0,0,0,0,0,0],"sum_hessian":[1.9521256E4,1.056835E4,8.952905E3,5.531251E3,5.037098E3,5.964003E3,2.9889026E3,3.1989326E3,2.3323186E3,4.8344404E3,2.0265784E2,3.5770762E3,2.3869265E3,2.6098735E3,3.7902917E2,1.6988022E3,1.5001305E3,1.7123545E3,6.19964E2,3.4988408E3,1.3355996E3,1.2712263E2,7.553521E1,1.4820543E3,2.095022E3,1.6393655E3,7.475611E2,1.6672147E3,9.426587E2,2.5874258E2,1.20286575E2,1.2542E3,4.446023E2,5.2528864E2,9.748418E2,7.414717E2,9.7088275E2,3.2706497E2,2.9289905E2,1.7355646E3,1.7632764E3,7.124E2,6.231995E2,6.216345E1,6.4959175E1,6.713045E1,8.404758E0,7.331427E2,7.489117E2,9.159059E2,1.1791161E3,8.529715E2,7.86394E2,5.504252E2,1.9713593E2,8.5678906E2,8.1042566E2,5.202251E2,4.224336E2,1.3696376E1,2.4504622E2,6.780488E1,5.24817E1,6.0549255E2,6.487074E2,1.0534652E2,3.392558E2,3.082086E2,2.1708006E2,5.3995123E2,4.3489056E2,4.2848117E2,3.1299054E2,5.543698E2,4.1651294E2,8.596731E1,2.4109766E2,2.711379E2,2.1761139E1,1.0310052E3,7.0455927E2,1.0415082E3,7.2176825E2,3.9487686E2,3.175232E2,1.7234056E2,4.5085898E2,3.1363707E1,3.079974E1,6.3875E1,1.0841792E0,6.42809E1,2.849551E0,2.3196585E0,6.0850997E0,5.073667E2,2.2577599E2,6.948129E2,5.4098763E1,5.41618E2,3.742879E2,5.538686E1,1.1237291E3,4.7075082E2,3.8222064E2,3.1174567E2,4.7464835E2,1.1739808E2,4.3302707E2,1.8784035E2,9.295587E0,4.865304E2,3.702587E2,4.956656E2,3.1476007E2,2.6324146E2,2.569836E2,2.0784322E2,2.1459038E2,9.743588E0,3.952787E0,2.3634529E2,8.700919E0,4.549075E1,2.2314127E1,5.1237324E1,1.2443769E0],"tree_param":{"num_deleted":"0","num_feature":"13","num_nodes":"127","size_leaf_vector":"1"}},{"base_weights":[-9.240937E-2,-3.6133733E-1,2.0414001E-1,-1.2302459E-1,-6.6445404E-1,3.4322664E-1,-8.984747E-2,-9.881844E-3,-2.8826243E-1,-7.233083E-1,5.756289E-1,4.7422147E-1,1.5484817E-1,-2.2328542E-1,9.0065646E-1,-1.2643673E-1,1.1722886E-1,-3.7044555E-1,-7.8485504E-2,-8.448746E-1,-4.362508E-1,4.1206214E-1,7.6027477E-1,3.1116223E-1,6.4082766E-1,1.9911978E-2,2.9017633E-1,-3.945713E-1,4.924503E-2,9.8578364E-1,7.2116303E-1,-1.9678532E-1,6.0487688E-2,2.726396E-1,2.9882576E-2,-1.646595E-1,-5.5696994E-1,-2.281439E-1,9.4786994E-2,-7.614206E-1,-9.297224E-1,-3.020141E-1,-6.0212624E-1,6.039773E-1,1.8619035E-1,9.1674256E-1,5.200252E-1,4.696394E-1,2.183317E-1,5.412807E-1,8.220121E-1,-1.2918504E-1,1.3203034E-1,1.2693176E-1,3.838401E-1,-2.1179353E-1,-6.0909384E-1,2.1726215E-1,-1.7428587E-1,6.6416126E-1,1.0153253E0,1.14100456E-1,7.729226E-1,-2.3198532E-2,-9.6271425E-2,1.0074673E-1,-7.187397E-3,1.4122747E-1,6.334686E-2,-5.078921E-2,7.83956E-2,-9.4514646E-2,2.7581512E-3,-1.1126404E-1,-1.8623295E-1,-2.3812796E-1,-5.9137207E-2,8.6070746E-2,-3.427627E-2,-2.5005573E-1,-1.9765486E-1,-2.919292E-1,-2.6011965E-1,-1.3014744E-1,-4.470676E-2,-1.617319E-1,-2.297762E-1,8.2318574E-2,2.420485E-1,-2.9949078E-1,8.3219044E-2,1.8024208E-1,2.9364213E-1,7.57487E-2,2.649577E-1,1.8459001E-1,9.090549E-2,-1.5882643E-2,1.4499123E-1,2.38695E-1,5.6301024E-2,6.73194E-2,2.5466213E-1,6.617769E-3,-8.4778175E-2,7.853744E-2,-5.6097224E-2,2.5210002E-2,3.096544E-1,1.4900115E-1,1.217166E-2,-9.301444E-2,1.06932886E-1,-2.3946337E-1,-1.5235415E-1,1.5681636E-2,1.4871722E-1,-1.0940217E-1,-1.1927037E-2,2.3998718E-1,-1.5521307E-1,1.2163301E-1,3.0826658E-1,-1.8652125E-1,1.7386052E-1,2.3642142E-1,-7.177752E-2],"categories":[],"categories_nodes":[],"categories_segments":[],"categories_sizes":[],"default_left":[0,0,0,0,0,0,0,0,0,0,0,0,0,0,0,0,0,0,0,0,0,0,0,0,0,0,0,0,0,0,0,0,0,0,0,0,0,0,0,0,0,0,0,0,0,0,0,0,0,0,0,0,0,0,0,0,0,0,0,0,0,0,0,0,0,0,0,0,0,0,0,0,0,0,0,0,0,0,0,0,0,0,0,0,0,0,0,0,0,0,0,0,0,0,0,0,0,0,0,0,0,0,0,0,0,0,0,0,0,0,0,0,0,0,0,0,0,0,0,0,0,0,0,0,0,0,0],"id":4,"left_children":[1,3,5,7,9,11,13,15,17,19,21,23,25,27,29,31,33,35,37,39,41,43,45,47,49,51,53,55,57,59,61,63,65,67,69,71,73,75,77,79,81,83,85,87,89,91,93,95,97,99,101,103,105,107,109,111,113,115,117,119,121,123,125,-1,-1,-1,-1,-1,-1,-1,-1,-1,-1,-1,-1,-1,-1,-1,-1,-1,-1,-1,-1,-1,-1,-1,-1,-1,-1,-1,-1,-1,-1,-1,-1,-1,-1,-1,-1,-1,-1,-1,-1,-1,-1,-1,-1,-1,-1,-1,-1,-1,-1,-1,-1,-1,-1,-1,-1,-1,-1,-1,-1,-1,-1,-1,-1],"loss_changes":[1.4406807E3,6.842522E2,3.513322E2,9.917518E1,3.047296E2,1.4385052E2,3.6499625E2,4.6681324E1,3.71416E1,1.385581E2,5.4093475E0,9.324548E1,4.3705063E1,1.136004E2,4.2989807E0,2.1625607E1,2.0451778E1,5.936081E1,1.5792541E1,1.908789E1,2.623642E1,4.3375816E0,2.8245773E0,2.5499802E1,3.0223999E1,2.0071312E1,1.822371E1,5.8459045E1,3.5339054E1,1.412857E0,3.3430786E0,1.7685081E1,1.04756155E1,6.505028E0,4.457597E1,1.9294186E1,9.411758E0,5.57411E0,1.1380256E1,9.914551E0,2.911499E0,1.3199951E1,5.054611E0,3.459381E0,5.527642E0,4.2907715E-1,3.366786E0,1.539444E1,7.904442E1,9.882608E1,9.457764E0,1.1965221E1,2.8415646E1,1.6890827E1,2.9371399E1,4.5241352E1,1.2746674E1,2.4647789E1,1.033024E1,3.8428965E0,1.0699615E0,3.700402E0,1.7287788E0,0E0,0E0,0E0,0E0,0E0,0E0,0E0,0E0,0E0,0E0,0E0,0E0,0E0,0E0,0E0,0E0,0E0,0E0,0E0,0E0,0E0,0E0,0E0,0E0,0E0,0E0,0E0,0E0,0E0,0E0,0E0,0E0,0E0,0E0,0E0,0E0,0E0,0E0,0E0,0E0,0E0,0E0,0E0,0E0,0E0,0E0,0E0,0E0,0E0,0E0,0E0,0E0,0E0,0E0,0E0,0E0,0E0,0E0,0E0,0E0,0E0,0E0,0E0,0E0],"parents":[2147483647,0,0,1,1,2,2,3,3,4,4,5,5,6,6,7,7,8,8,9,9,10,10,11,11,12,12,13,13,14,14,15,15,16,16,17,17,18,18,19,19,20,20,21,21,22,22,23,23,24,24,25,25,26,26,27,27,28,28,29,29,30,30,31,31,32,32,33,33,34,34,35,35,36,36,37,37,38,38,39,39,40,40,41,41,42,42,43,43,44,44,45,45,46,46,47,47,48,48,49,49,50,50,51,51,52,52,53,53,54,54,55,55,56,56,57,57,58,58,59,59,60,60,61,61,62,62],"right_children":[2,4,6,8,10,12,14,16,18,20,22,24,26,28,30,32,34,36,38,40,42,44,46,48,50,52,54,56,58,60,62,64,66,68,70,72,74,76,78,80,82,84,86,88,90,92,94,96,98,100,102,104,106,108,110,112,114,116,118,120,122,124,126,-1,-1,-1,-1,-1,-1,-1,-1,-1,-1,-1,-1,-1,-1,-1,-1,-1,-1,-1,-1,-1,-1,-1,-1,-1,-1,-1,-1,-1,-1,-1,-1,-1,-1,-1,-1,-1,-1,-1,-1,-1,-1,-1,-1,-1,-1,-1,-1,-1,-1,-1,-1,-1,-1,-1,-1,-1,-1,-1,-1,-1,-1,-1,-1],"split_conditions":[2.1184361E-1,8.140859E-1,8.140859E-1,1.0054151E0,2.6421862E0,1.0054151E0,2.6421862E0,1.1376145E0,1.9388845E0,-2.9221937E-2,5.930217E-1,8.8829875E-1,1.1376145E0,-2.9221937E-2,1.0054151E0,1.9388845E0,-2.9221937E-2,3.096665E-1,-3.51869E-1,1.0054151E0,1.0054151E0,2.2758017E-1,1.0054151E0,1.0503609E-1,1.9388845E0,8.8829875E-1,7.755562E-1,1.0054151E0,1.0054151E0,-1.4701236E0,3.2458612E-1,3.096665E-1,5.7144076E-1,5.7144076E-1,1.9388845E0,-3.51869E-1,5.7144076E-1,4.0503743E-1,1.0784929E0,1.1376145E0,1.1376145E0,1.1376145E0,1.2893718E0,-4.646115E-1,2.775534E-1,-7.198997E-1,3.0254E-1,4.018057E-2,1.9388845E0,-2.9221937E-2,-1.6963891E0,4.018057E-2,2.241209E0,1.4426068E0,2.241209E0,1.4520113E0,5.500712E-1,1.0010413E0,7.755562E-1,1.6692828E0,-2.1211615E0,-4.3456507E-1,1.9764928E0,-2.3198532E-2,-9.6271425E-2,1.0074673E-1,-7.187397E-3,1.4122747E-1,6.334686E-2,-5.078921E-2,7.83956E-2,-9.4514646E-2,2.7581512E-3,-1.1126404E-1,-1.8623295E-1,-2.3812796E-1,-5.9137207E-2,8.6070746E-2,-3.427627E-2,-2.5005573E-1,-1.9765486E-1,-2.919292E-1,-2.6011965E-1,-1.3014744E-1,-4.470676E-2,-1.617319E-1,-2.297762E-1,8.2318574E-2,2.420485E-1,-2.9949078E-1,8.3219044E-2,1.8024208E-1,2.9364213E-1,7.57487E-2,2.649577E-1,1.8459001E-1,9.090549E-2,-1.5882643E-2,1.4499123E-1,2.38695E-1,5.6301024E-2,6.73194E-2,2.5466213E-1,6.617769E-3,-8.4778175E-2,7.853744E-2,-5.6097224E-2,2.5210002E-2,3.096544E-1,1.4900115E-1,1.217166E-2,-9.301444E-2,1.06932886E-1,-2.3946337E-1,-1.5235415E-1,1.5681636E-2,1.4871722E-1,-1.0940217E-1,-1.1927037E-2,2.3998718E-1,-1.5521307E-1,1.2163301E-1,3.0826658E-1,-1.8652125E-1,1.7386052E-1,2.3642142E-1,-7.177752E-2],"split_indices":[1,4,4,6,4,6,4,11,9,3,3,1,11,3,6,9,3,3,1,6,6,0,6,3,9,1,1,6,6,7,1,3,5,5,9,1,5,3,3,11,11,11,3,1,0,2,0,0,9,3,0,0,1,7,1,1,1,1,1,3,0,0,3,0,0,0,0,0,0,0,0,0,0,0,0,0,0,0,0,0,0,0,0,0,0,0,0,0,0,0,0,0,0,0,0,0,0,0,0,0,0,0,0,0,0,0,0,0,0,0,0,0,0,0,0,0,0,0,0,0,0,0,0,0,0,0,0],"split_type":[0,0,0,0,0,0,0,0,0,0,0,0,0,0,0,0,0,0,0,0,0,0,0,0,0,0,0,0,0,0,0,0,0,0,0,0,0,0,0,0,0,0,0,0,0,0,0,0,0,0,0,0,0,0,0,0,0,0,0,0,0,0,0,0,0,0,0,0,0,0,0,0,0,0,0,0,0,0,0,0,0,0,0,0,0,0,0,0,0,0,0,0,0,0,0,0,0,0,0,0,0,0,0,0,0,0,0,0,0,0,0,0,0,0,0,0,0,0,0,0,0,0,0,0,0,0,0],"sum_hessian":[1.8062941E4,9.472509E3,8.590433E3,5.303926E3,4.168583E3,5.831405E3,2.759028E3,3.1488704E3,2.1550557E3,3.9801045E3,1.8847887E2,3.4386885E3,2.392716E3,2.4321501E3,3.2687796E2,1.6426439E3,1.5062264E3,1.5478839E3,6.0717163E2,2.7946511E3,1.1854534E3,1.0165787E2,8.6821E1,1.7392925E3,1.6993961E3,1.1986675E3,1.1940486E3,1.4932144E3,9.389358E2,2.1867589E2,1.0820208E2,1.1934419E3,4.4920206E2,5.411912E2,9.6503516E2,7.368382E2,8.110457E2,3.2561542E2,2.8155624E2,1.413926E3,1.3807251E3,6.5677277E2,5.2868054E2,5.405515E1,4.760272E1,5.087304E1,3.5947964E1,6.409777E2,1.0983147E3,1.0993662E3,6.000299E2,5.1442444E2,6.842431E2,4.3618558E2,7.57863E2,8.073349E2,6.858794E2,5.3604517E2,4.028906E2,2.0371517E1,1.9830438E2,8.752512E0,9.944956E1,6.089704E2,5.844715E2,1.0473555E2,3.4446652E2,1.2659766E2,4.1459357E2,5.188058E2,4.4622937E2,3.946445E2,3.4219373E2,2.0882529E2,6.0222046E2,1.5650778E1,3.0996463E2,1.4652377E2,1.3503246E2,8.261146E2,5.878114E2,8.073196E2,5.7340546E2,3.5182257E2,3.049502E2,3.8488678E2,1.437938E2,2.149075E1,3.25644E1,2.6923099E0,4.4910408E1,1.0106564E1,4.076647E1,2.1675682E1,1.4272281E1,3.4056342E2,3.0041428E2,5.430996E2,5.5521515E2,6.386815E2,4.6068466E2,2.6212406E1,5.738175E2,2.594709E2,2.5495354E2,4.865282E2,1.977149E2,4.17494E2,1.8691584E1,5.700452E2,1.8781773E2,6.887044E2,1.1863053E2,2.3675815E2,4.4912125E2,3.3735086E2,1.9869432E2,1.6610503E2,2.3678558E2,1.8561205E1,1.8103137E0,4.569805E0,1.9373457E2,3.2610576E0,5.491454E0,9.820125E1,1.2483203E0],"tree_param":{"num_deleted":"0","num_feature":"13","num_nodes":"127","size_leaf_vector":"1"}},{"base_weights":[-7.414003E-2,-3.1072816E-1,1.3200584E-1,-1.0805763E-1,-6.0163707E-1,2.3479454E-1,-9.074038E-2,-2.1109802E-1,7.1316273E-3,-6.529678E-1,3.9450026E-1,1.0978529E-1,3.4186637E-1,-1.9175065E-1,7.687885E-1,-9.604868E-2,-3.7408325E-1,1.4811549E-1,-6.899332E-2,-7.8207797E-1,-3.7465668E-1,1.817879E-1,6.2636447E-1,4.664666E-3,2.1511857E-1,4.8209846E-1,1.7482589E-1,-2.9455274E-1,1.1763753E-1,8.550302E-1,6.020221E-1,-1.9254862E-1,4.6827175E-2,-4.450412E-1,-1.8937464E-1,9.2933975E-2,3.2889262E-1,-2.3880874E-1,1.20344914E-1,-6.8837035E-1,-8.80672E-1,-2.6385236E-1,-5.1828206E-1,-7.716943E-2,4.5842755E-1,6.499551E-1,-1.0630737E-1,1.2936145E-1,-8.575889E-2,2.9873437E-1,7.4517876E-2,3.7649414E-1,6.417975E-1,2.3793964E-1,-1.7979565E-1,-4.595679E-1,-1.0078252E-1,2.0077647E-1,-4.1929507E-1,4.9509367E-1,8.763486E-1,4.385626E-1,8.1420785E-1,7.1032375E-2,-6.908489E-2,6.484943E-2,-1.1754606E-2,-9.355694E-2,-1.7272249E-1,-2.4862313E-1,-4.645314E-2,2.3270147E-2,2.3488124E-1,1.0830989E-1,-1.2425352E-1,1.7096923E-3,-9.891803E-2,-2.9297093E-2,7.961833E-2,-2.304371E-1,-1.7379886E-1,-2.801857E-1,-2.4191508E-1,-1.135645E-1,-4.0894646E-2,-1.12214625E-1,-1.8077919E-1,3.875729E-2,-1.156322E-1,1.8680811E-1,-2.6301986E-3,2.4180673E-1,1.3895872E-1,-1.4425051E-1,1.0022334E-1,8.673937E-2,-9.959575E-3,-2.7548543E-1,-2.2255257E-2,1.1374849E-1,6.323557E-2,-4.8114542E-2,4.8751768E-2,8.610131E-2,1.6430362E-1,2.0766479E-1,-1.9078022E-2,4.745931E-2,1.2135804E-1,-3.1593103E-2,-2.490611E-1,-1.8340485E-1,-7.866062E-2,2.1749467E-2,-1.019714E-1,9.302752E-3,1.13878295E-1,-1.0191158E-1,-3.5340318E-1,-4.5509352E-3,2.6630554E-1,2.27407E-1,2.877972E-1,-1.5287818E-1,1.5294883E-1,2.695561E-1,7.40213E-2],"categories":[],"categories_nodes":[],"categories_segments":[],"categories_sizes":[],"default_left":[0,0,0,0,0,0,0,0,0,0,0,0,0,0,0,0,0,0,0,0,0,0,0,0,0,0,0,0,0,0,0,0,0,0,0,0,0,0,0,0,0,0,0,0,0,0,0,0,0,0,0,0,0,0,0,0,0,0,0,0,0,0,0,0,0,0,0,0,0,0,0,0,0,0,0,0,0,0,0,0,0,0,0,0,0,0,0,0,0,0,0,0,0,0,0,0,0,0,0,0,0,0,0,0,0,0,0,0,0,0,0,0,0,0,0,0,0,0,0,0,0,0,0,0,0,0,0],"id":5,"left_children":[1,3,5,7,9,11,13,15,17,19,21,23,25,27,29,31,33,35,37,39,41,43,45,47,49,51,53,55,57,59,61,63,65,67,69,71,73,75,77,79,81,83,85,87,89,91,93,95,97,99,101,103,105,107,109,111,113,115,117,119,121,123,125,-1,-1,-1,-1,-1,-1,-1,-1,-1,-1,-1,-1,-1,-1,-1,-1,-1,-1,-1,-1,-1,-1,-1,-1,-1,-1,-1,-1,-1,-1,-1,-1,-1,-1,-1,-1,-1,-1,-1,-1,-1,-1,-1,-1,-1,-1,-1,-1,-1,-1,-1,-1,-1,-1,-1,-1,-1,-1,-1,-1,-1,-1,-1,-1],"loss_changes":[8.226689E2,4.629889E2,2.0640501E2,5.4957844E1,1.6514429E2,8.252243E1,2.4732182E2,4.5792465E1,2.3483864E1,1.0991443E2,7.710726E0,3.152478E1,7.773047E1,8.108689E1,3.7939148E0,1.978078E1,1.3166092E1,7.6227703E0,4.5716522E1,1.8742188E1,1.5361435E1,6.063719E0,1.3740234E0,1.6090471E1,1.6696808E1,3.0204895E1,3.4009575E1,6.1124054E1,2.8487944E1,1.0630798E0,3.3019562E0,1.3923944E1,8.44004E0,1.2521606E1,6.1048775E0,6.186467E0,4.4251328E0,1.6662052E1,2.1292004E1,8.93219E0,3.2719116E0,8.019764E0,4.9196777E0,2.8692179E0,3.138936E0,1.7626495E0,6.908237E-1,1.5588243E1,7.903186E0,6.225731E0,1.1014929E1,1.652745E1,2.555066E1,1.705597E1,1.1048394E1,3.0782196E1,3.653543E1,1.6734854E1,4.771077E0,2.6591842E0,1.0683441E0,4.432934E0,1.9188194E0,0E0,0E0,0E0,0E0,0E0,0E0,0E0,0E0,0E0,0E0,0E0,0E0,0E0,0E0,0E0,0E0,0E0,0E0,0E0,0E0,0E0,0E0,0E0,0E0,0E0,0E0,0E0,0E0,0E0,0E0,0E0,0E0,0E0,0E0,0E0,0E0,0E0,0E0,0E0,0E0,0E0,0E0,0E0,0E0,0E0,0E0,0E0,0E0,0E0,0E0,0E0,0E0,0E0,0E0,0E0,0E0,0E0,0E0,0E0,0E0,0E0,0E0,0E0,0E0],"parents":[2147483647,0,0,1,1,2,2,3,3,4,4,5,5,6,6,7,7,8,8,9,9,10,10,11,11,12,12,13,13,14,14,15,15,16,16,17,17,18,18,19,19,20,20,21,21,22,22,23,23,24,24,25,25,26,26,27,27,28,28,29,29,30,30,31,31,32,32,33,33,34,34,35,35,36,36,37,37,38,38,39,39,40,40,41,41,42,42,43,43,44,44,45,45,46,46,47,47,48,48,49,49,50,50,51,51,52,52,53,53,54,54,55,55,56,56,57,57,58,58,59,59,60,60,61,61,62,62],"right_children":[2,4,6,8,10,12,14,16,18,20,22,24,26,28,30,32,34,36,38,40,42,44,46,48,50,52,54,56,58,60,62,64,66,68,70,72,74,76,78,80,82,84,86,88,90,92,94,96,98,100,102,104,106,108,110,112,114,116,118,120,122,124,126,-1,-1,-1,-1,-1,-1,-1,-1,-1,-1,-1,-1,-1,-1,-1,-1,-1,-1,-1,-1,-1,-1,-1,-1,-1,-1,-1,-1,-1,-1,-1,-1,-1,-1,-1,-1,-1,-1,-1,-1,-1,-1,-1,-1,-1,-1,-1,-1,-1,-1,-1,-1,-1,-1,-1,-1,-1,-1,-1,-1,-1,-1,-1,-1],"split_conditions":[9.910109E-2,8.140859E-1,8.140859E-1,1.1376145E0,2.6421862E0,7.755562E-1,2.6421862E0,1.0054151E0,1.0503609E-1,-2.9221937E-2,1.7611477E-1,1.1376145E0,1.0054151E0,1.9388845E0,1.0054151E0,-3.51869E-1,1.9388845E0,-1.8951976E-1,1.9388845E0,1.0054151E0,1.0054151E0,1.1376145E0,1.6029549E0,-1.9719225E-1,1.0054151E0,1.4520113E0,2.5794365E0,1.1376145E0,1.4450428E0,-1.7901186E0,6.609646E-1,-1.4215363E0,-3.7209854E-1,3.096665E-1,4.0503743E-1,2.0516028E0,1.467024E0,5.7144076E-1,-6.517641E-1,1.1376145E0,1.1376145E0,1.1376145E0,-2.4716549E-1,1.0054151E0,6.3985926E-1,8.6727154E-1,1.7607056E0,8.6727154E-1,-2.1922832E0,4.018057E-2,-6.010891E-1,1.9388845E0,2.917664E0,1.9388845E0,3.8196044E0,7.755562E-1,1.0054151E0,7.755562E-1,1.9764928E0,1.1376145E0,-2.9221937E-2,-1.6214292E0,1.1895648E0,7.1032375E-2,-6.908489E-2,6.484943E-2,-1.1754606E-2,-9.355694E-2,-1.7272249E-1,-2.4862313E-1,-4.645314E-2,2.3270147E-2,2.3488124E-1,1.0830989E-1,-1.2425352E-1,1.7096923E-3,-9.891803E-2,-2.9297093E-2,7.961833E-2,-2.304371E-1,-1.7379886E-1,-2.801857E-1,-2.4191508E-1,-1.135645E-1,-4.0894646E-2,-1.12214625E-1,-1.8077919E-1,3.875729E-2,-1.156322E-1,1.8680811E-1,-2.6301986E-3,2.4180673E-1,1.3895872E-1,-1.4425051E-1,1.0022334E-1,8.673937E-2,-9.959575E-3,-2.7548543E-1,-2.2255257E-2,1.1374849E-1,6.323557E-2,-4.8114542E-2,4.8751768E-2,8.610131E-2,1.6430362E-1,2.0766479E-1,-1.9078022E-2,4.745931E-2,1.2135804E-1,-3.1593103E-2,-2.490611E-1,-1.8340485E-1,-7.866062E-2,2.1749467E-2,-1.019714E-1,9.302752E-3,1.13878295E-1,-1.0191158E-1,-3.5340318E-1,-4.5509352E-3,2.6630554E-1,2.27407E-1,2.877972E-1,-1.5287818E-1,1.5294883E-1,2.695561E-1,7.40213E-2],"split_indices":[1,4,4,11,4,1,4,6,3,3,7,11,6,9,6,1,9,1,9,6,6,11,3,0,6,1,1,11,3,7,3,0,0,3,3,0,7,5,1,11,11,11,0,6,0,8,3,8,7,0,7,9,1,9,1,1,6,1,3,11,3,0,0,0,0,0,0,0,0,0,0,0,0,0,0,0,0,0,0,0,0,0,0,0,0,0,0,0,0,0,0,0,0,0,0,0,0,0,0,0,0,0,0,0,0,0,0,0,0,0,0,0,0,0,0,0,0,0,0,0,0,0,0,0,0,0,0],"split_type":[0,0,0,0,0,0,0,0,0,0,0,0,0,0,0,0,0,0,0,0,0,0,0,0,0,0,0,0,0,0,0,0,0,0,0,0,0,0,0,0,0,0,0,0,0,0,0,0,0,0,0,0,0,0,0,0,0,0,0,0,0,0,0,0,0,0,0,0,0,0,0,0,0,0,0,0,0,0,0,0,0,0,0,0,0,0,0,0,0,0,0,0,0,0,0,0,0,0,0,0,0,0,0,0,0,0,0,0,0,0,0,0,0,0,0,0,0,0,0,0,0,0,0,0,0,0,0],"sum_hessian":[1.6865922E4,7.8528765E3,9.013045E3,4.629185E3,3.2236914E3,6.16711E3,2.8459348E3,2.4430066E3,2.1861782E3,3.0660432E3,1.5764824E2,2.846163E3,3.320947E3,2.5473518E3,2.985832E2,1.4330343E3,1.0099724E3,7.66209E2,1.4199692E3,2.0931902E3,9.72853E2,8.3150215E1,7.4498024E1,1.4250422E3,1.4211208E3,1.8043182E3,1.5166287E3,1.9120668E3,6.352849E2,1.9408621E2,1.0449699E2,8.5512537E2,5.779089E2,7.2864545E2,2.81327E2,5.881826E2,1.7802632E2,7.484401E2,6.715291E2,1.0772812E3,1.01590894E3,5.507763E2,4.2207672E2,4.3320103E1,3.983011E1,7.228352E1,2.2144957E0,5.988204E2,8.262218E2,8.9044495E2,5.306759E2,1.088128E3,7.1619025E2,1.2877673E3,2.288613E2,1.0319143E3,8.8015247E2,5.506483E2,8.463661E1,1.2207127E1,1.8187909E2,6.0758163E1,4.373882E1,6.866079E1,7.864646E2,1.94149E2,3.837599E2,3.6256982E2,3.6607562E2,1.3236752E1,2.6809024E2,5.76457E2,1.1725653E1,1.7113817E2,6.8881645E0,2.0312071E2,5.453194E2,2.684258E2,4.0310333E2,6.187086E2,4.5857257E2,5.848659E2,4.3104303E2,2.8895038E2,2.6182593E2,1.577164E2,2.643603E2,2.6297298E1,1.7022804E1,2.922259E1,1.0607521E1,3.7571064E1,3.471246E1,1.1470933E0,1.0674022E0,3.0160934E2,2.97211E2,1.0255369E1,8.1596643E2,4.6338242E2,4.2706256E2,1.4438683E2,3.862891E2,7.1633026E2,3.7179782E2,6.684321E2,4.775811E1,8.7220825E2,4.1555905E2,2.0638753E2,2.2473772E1,5.821343E2,4.4978006E2,5.107398E2,3.6941263E2,2.830745E2,2.675738E2,7.791139E1,6.725223E0,5.726097E0,6.481029E0,7.91477E1,1.0273139E2,3.8175647E0,5.69406E1,3.7572994E1,6.1658244E0],"tree_param":{"num_deleted":"0","num_feature":"13","num_nodes":"127","size_leaf_vector":"1"}},{"base_weights":[-5.8529396E-2,-1.8678854E-1,1.696947E-1,-3.568593E-2,-4.5114762E-1,2.7876753E-1,3.201712E-2,-1.5028846E-1,4.1817773E-2,-6.111915E-1,-1.7222662E-1,1.4277965E-1,4.0068746E-1,6.748648E-2,-4.906259E-1,-7.492969E-2,-2.6677847E-1,1.0574616E-1,-6.234663E-2,-6.544932E-1,2.6816878E-1,-2.2875673E-1,4.7507656E-1,6.2749915E-2,3.5352147E-1,3.1378493E-1,5.706272E-1,-2.8398735E-2,1.6593991E-1,-3.0024233E-1,-7.4404615E-1,2.2842142E-1,-1.01409785E-1,-1.0299263E-1,-3.2703796E-1,1.72982E-1,2.3499765E-2,-1.6667053E-1,4.360322E-2,-5.484471E-1,-7.789788E-1,9.212214E-2,4.381307E-1,-3.5545105E-1,-8.154754E-2,6.832534E-1,1.6592923E-1,-1.3348958E-2,2.3818156E-1,4.1260558E-1,-6.0189867E-1,2.9389438E-1,8.5144156E-1,4.895434E-2,6.419446E-1,1.7331673E-1,-1.0603432E-1,6.17001E-2,2.82E-1,3.310367E-1,-3.2952443E-1,-7.678157E-1,-1.16939675E-2,2.2112645E-1,4.7245447E-2,2.1439921E-2,-4.4488728E-2,7.648496E-2,-4.1941766E-2,-1.2559715E-1,-6.5557614E-2,4.8537087E-2,2.088164E-1,3.6436055E-2,-1.2295618E-2,-6.6651846E-3,-7.4694484E-2,5.470604E-2,-2.002659E-2,-1.9547577E-1,-1.2594637E-1,-2.569794E-1,-2.0287088E-1,1.561149E-1,-2.4340002E-2,7.138393E-2,2.1508093E-1,-7.4225195E-2,-1.4791572E-1,-7.9700045E-2,1.9372456E-2,5.667382E-2,2.2642146E-1,-2.8953743E-1,9.242488E-2,3.1138184E-2,-5.6186717E-2,-6.6416174E-2,9.023996E-2,1.340833E-1,-9.8547705E-2,1.1948451E-1,-2.9078525E-1,6.985916E-2,1.283386E-1,6.714879E-2,2.7793258E-1,3.7246022E-2,-2.8410047E-1,1.9824865E-1,-3.4979042E-1,7.3648416E-2,-4.4223377E-3,-8.477188E-3,-9.2400976E-2,-9.06982E-3,6.355146E-2,1.2883323E-1,2.2868834E-2,-6.046878E-2,-2.3259978E-1,-2.6197597E-1,-1.7920128E-1,-2.0375495E-1,2.037182E-1],"categories":[],"categories_nodes":[],"categories_segments":[],"categories_sizes":[],"default_left":[0,0,0,0,0,0,0,0,0,0,0,0,0,0,0,0,0,0,0,0,0,0,0,0,0,0,0,0,0,0,0,0,0,0,0,0,0,0,0,0,0,0,0,0,0,0,0,0,0,0,0,0,0,0,0,0,0,0,0,0,0,0,0,0,0,0,0,0,0,0,0,0,0,0,0,0,0,0,0,0,0,0,0,0,0,0,0,0,0,0,0,0,0,0,0,0,0,0,0,0,0,0,0,0,0,0,0,0,0,0,0,0,0,0,0,0,0,0,0,0,0,0,0,0,0],"id":6,"left_children":[1,3,5,7,9,11,13,15,17,19,21,23,25,27,29,31,33,35,37,39,41,43,45,47,49,51,53,55,57,59,61,63,65,67,69,71,73,75,77,79,81,83,85,87,89,91,93,95,97,99,101,103,105,107,109,111,113,115,117,-1,119,121,123,-1,-1,-1,-1,-1,-1,-1,-1,-1,-1,-1,-1,-1,-1,-1,-1,-1,-1,-1,-1,-1,-1,-1,-1,-1,-1,-1,-1,-1,-1,-1,-1,-1,-1,-1,-1,-1,-1,-1,-1,-1,-1,-1,-1,-1,-1,-1,-1,-1,-1,-1,-1,-1,-1,-1,-1,-1,-1,-1,-1,-1,-1],"loss_changes":[4.6775894E2,4.0863397E2,8.633095E1,5.7834225E1,1.6598212E2,5.3128433E1,4.7167923E1,2.3040077E1,2.5875282E1,9.0180786E1,4.9797493E1,2.557996E1,2.4792206E1,2.2490578E1,7.5786934E0,1.2846804E1,1.0146378E1,1.3310167E1,1.6344368E1,2.9316101E1,3.3000946E0,2.32753E1,6.926607E0,1.4707294E1,2.3821339E1,1.1738007E1,2.1208038E1,1.8929008E1,1.4202293E1,4.227997E0,1.1868324E0,4.5196495E0,1.1917068E1,3.7104506E0,7.400383E0,7.6415215E0,6.8528295E0,8.852001E0,1.1253004E1,1.5911713E1,7.667053E0,4.205163E0,2.9848375E0,9.856644E0,1.5601678E1,2.156105E0,7.5872684E0,1.5691305E1,9.657536E0,1.0169975E1,9.471976E0,8.746849E0,1.6502762E0,5.3408723E0,1.7914291E1,4.564027E0,1.369821E1,8.570876E0,1.68322E1,0E0,5.141365E0,6.740494E-1,1.9250882E0,0E0,0E0,0E0,0E0,0E0,0E0,0E0,0E0,0E0,0E0,0E0,0E0,0E0,0E0,0E0,0E0,0E0,0E0,0E0,0E0,0E0,0E0,0E0,0E0,0E0,0E0,0E0,0E0,0E0,0E0,0E0,0E0,0E0,0E0,0E0,0E0,0E0,0E0,0E0,0E0,0E0,0E0,0E0,0E0,0E0,0E0,0E0,0E0,0E0,0E0,0E0,0E0,0E0,0E0,0E0,0E0,0E0,0E0,0E0,0E0,0E0,0E0],"parents":[2147483647,0,0,1,1,2,2,3,3,4,4,5,5,6,6,7,7,8,8,9,9,10,10,11,11,12,12,13,13,14,14,15,15,16,16,17,17,18,18,19,19,20,20,21,21,22,22,23,23,24,24,25,25,26,26,27,27,28,28,29,29,30,30,31,31,32,32,33,33,34,34,35,35,36,36,37,37,38,38,39,39,40,40,41,41,42,42,43,43,44,44,45,45,46,46,47,47,48,48,49,49,50,50,51,51,52,52,53,53,54,54,55,55,56,56,57,57,58,58,60,60,61,61,62,62],"right_children":[2,4,6,8,10,12,14,16,18,20,22,24,26,28,30,32,34,36,38,40,42,44,46,48,50,52,54,56,58,60,62,64,66,68,70,72,74,76,78,80,82,84,86,88,90,92,94,96,98,100,102,104,106,108,110,112,114,116,118,-1,120,122,124,-1,-1,-1,-1,-1,-1,-1,-1,-1,-1,-1,-1,-1,-1,-1,-1,-1,-1,-1,-1,-1,-1,-1,-1,-1,-1,-1,-1,-1,-1,-1,-1,-1,-1,-1,-1,-1,-1,-1,-1,-1,-1,-1,-1,-1,-1,-1,-1,-1,-1,-1,-1,-1,-1,-1,-1,-1,-1,-1,-1,-1,-1],"split_conditions":[5.500712E-1,8.140859E-1,1.0054151E0,-3.51869E-1,-2.9221937E-2,1.1376145E0,3.1431491E0,1.0054151E0,1.0054151E0,2.6421862E0,2.6421862E0,1.4520113E0,1.3392688E0,1.1376145E0,8.140859E-1,-1.4715096E0,5.7144076E-1,3.4829515E-1,1.1376145E0,1.0054151E0,1.1376145E0,1.1376145E0,1.0054151E0,1.9388845E0,3.1431491E0,2.6421862E0,-1.2548817E0,5.7144076E-1,1.3392688E0,-2.211995E0,2.6421862E0,-2.4459875E0,-8.7166667E-1,-1.4792942E0,1.1376145E0,1.7808976E0,-2.4716549E-1,-2.9221937E-2,-1.0973911E-1,1.1376145E0,1.1376145E0,5.7144076E-1,-1.3641429E-2,1.0054151E0,-3.51869E-1,-1.2765408E0,5.3902185E-1,1.0503609E-1,6.8212456E-1,1.6892971E0,-6.594446E-1,1.9388845E0,-1.0759647E0,3.1431491E0,4.0450892E0,8.140859E-1,8.140859E-1,5.0189215E-1,2.1284664E0,3.310367E-1,3.8196044E0,1.1376145E0,-7.9076463E-1,2.2112645E-1,4.7245447E-2,2.1439921E-2,-4.4488728E-2,7.648496E-2,-4.1941766E-2,-1.2559715E-1,-6.5557614E-2,4.8537087E-2,2.088164E-1,3.6436055E-2,-1.2295618E-2,-6.6651846E-3,-7.4694484E-2,5.470604E-2,-2.002659E-2,-1.9547577E-1,-1.2594637E-1,-2.569794E-1,-2.0287088E-1,1.561149E-1,-2.4340002E-2,7.138393E-2,2.1508093E-1,-7.4225195E-2,-1.4791572E-1,-7.9700045E-2,1.9372456E-2,5.667382E-2,2.2642146E-1,-2.8953743E-1,9.242488E-2,3.1138184E-2,-5.6186717E-2,-6.6416174E-2,9.023996E-2,1.340833E-1,-9.8547705E-2,1.1948451E-1,-2.9078525E-1,6.985916E-2,1.283386E-1,6.714879E-2,2.7793258E-1,3.7246022E-2,-2.8410047E-1,1.9824865E-1,-3.4979042E-1,7.3648416E-2,-4.4223377E-3,-8.477188E-3,-9.2400976E-2,-9.06982E-3,6.355146E-2,1.2883323E-1,2.2868834E-2,-6.046878E-2,-2.3259978E-1,-2.6197597E-1,-1.7920128E-1,-2.0375495E-1,2.037182E-1],"split_indices":[1,4,6,1,3,11,1,6,6,4,4,1,1,11,4,0,5,2,11,6,11,11,6,9,1,4,7,5,1,7,4,0,7,1,11,3,0,3,0,11,11,5,1,6,1,7,3,3,3,0,0,9,2,1,1,4,4,7,1,0,1,11,7,0,0,0,0,0,0,0,0,0,0,0,0,0,0,0,0,0,0,0,0,0,0,0,0,0,0,0,0,0,0,0,0,0,0,0,0,0,0,0,0,0,0,0,0,0,0,0,0,0,0,0,0,0,0,0,0,0,0,0,0,0,0],"split_type":[0,0,0,0,0,0,0,0,0,0,0,0,0,0,0,0,0,0,0,0,0,0,0,0,0,0,0,0,0,0,0,0,0,0,0,0,0,0,0,0,0,0,0,0,0,0,0,0,0,0,0,0,0,0,0,0,0,0,0,0,0,0,0,0,0,0,0,0,0,0,0,0,0,0,0,0,0,0,0,0,0,0,0,0,0,0,0,0,0,0,0,0,0,0,0,0,0,0,0,0,0,0,0,0,0,0,0,0,0,0,0,0,0,0,0,0,0,0,0,0,0,0,0,0,0],"sum_hessian":[1.597775E4,1.022923E4,5.74852E3,6.509601E3,3.719629E3,3.2068894E3,2.5416306E3,2.625867E3,3.8837341E3,2.3627183E3,1.3569108E3,1.5170088E3,1.6898806E3,2.3809197E3,1.6071112E2,1.5954165E3,1.0304506E3,2.4066782E3,1.4770559E3,2.2520764E3,1.10641685E2,1.2485219E3,1.0838895E2,1.1004196E3,4.165893E2,1.1199933E3,5.698873E2,1.2065524E3,1.1743672E3,9.3016594E1,6.769453E1,1.2747379E2,1.4679427E3,2.7787976E2,7.5257074E2,1.3235677E3,1.0831105E3,7.439499E2,7.33106E2,1.2190251E3,1.0330513E3,5.510545E1,5.5536232E1,6.7025665E2,5.782652E2,6.4048904E1,4.4340042E1,7.6813934E2,3.3228018E2,3.9286243E2,2.3726862E1,1.0815288E3,3.846447E1,6.874166E1,5.011457E2,3.3497537E2,8.71577E2,6.194961E2,5.548711E2,1.1511295E0,9.186546E1,6.551957E1,2.1749578E0,1.4451963E1,1.13021835E2,3.1307187E2,1.1548708E3,2.536131E1,2.5251846E2,4.0649844E2,3.460723E2,1.2971237E3,2.644412E1,4.296236E2,6.5348694E2,2.7050043E2,4.7344943E2,3.2448676E2,4.0861926E2,6.742839E2,5.447413E2,5.842954E2,4.487559E2,1.5295002E1,3.9810448E1,3.340481E1,2.2131418E1,3.770359E2,2.9322073E2,2.5550366E2,3.2276157E2,8.551966E0,5.549694E1,4.3041906E0,4.003585E1,4.5925177E2,3.0888757E2,3.954148E1,2.927387E2,3.758446E2,1.701783E1,6.351438E0,1.7375423E1,7.447978E2,3.3673102E2,4.531202E0,3.3933266E1,6.472964E1,4.0120306E0,4.9659308E2,4.5525913E0,2.4184723E2,9.312815E1,6.300777E2,2.4149928E2,3.8472144E2,2.3477469E2,3.2261536E2,2.3225575E2,7.250596E1,1.9359505E1,3.793507E1,2.75845E1,1.1146258E0,1.0603318E0],"tree_param":{"num_deleted":"0","num_feature":"13","num_nodes":"125","size_leaf_vector":"1"}},{"base_weights":[-4.5432918E-2,4.876968E-2,-2.4169356E-1,-3.5582144E-2,1.6586113E-1,-2.9937005E-1,4.518878E-1,-8.489746E-2,7.966866E-2,3.099028E-1,8.4963426E-2,-4.798883E-1,-1.2430563E-1,2.5238857E-1,6.2305653E-1,3.5089538E-2,-2.2345364E-1,-1.8841958E-1,1.3401628E-1,3.2847708E-1,-2.868947E-1,-1.1937845E-1,2.9431713E-1,-6.238607E-1,-2.3371999E-1,-2.191341E-1,5.3628806E-2,3.831525E-1,7.346096E-2,7.026219E-1,4.9006033E-1,-4.6435736E-2,1.2024219E-1,-2.5118595E-1,4.4609752E-1,4.3920073E-1,-2.0380948E-1,2.9796115E-1,1.676096E-2,-1.747286E-3,3.65154E-1,-4.7729066E-1,1.9495916E-1,-2.8377497E-1,-6.9302104E-2,1.9666702E-1,4.3380418E-1,-5.159133E-1,-7.5233173E-1,1.1261607E0,-2.4154492E-1,-3.4374672E-1,-9.149142E-2,1.4013223E-1,-1.7783718E-1,2.113157E-1,5.571399E-1,-3.6739266E-1,1.5640356E-1,3.1612688E-1,7.500288E-1,4.1909477E-1,9.3076867E-1,3.9778154E-2,-3.8597424E-2,6.934421E-2,2.530438E-2,3.685122E-2,-8.170017E-2,3.148327E-1,6.625836E-2,-7.465074E-2,7.3926665E-2,2.3306169E-2,1.1739209E-1,-2.8521487E-1,7.6221945E-3,1.148939E-2,-3.5819054E-1,1.3572603E-1,7.6394625E-2,-8.129069E-2,-3.1080237E-1,-5.2540284E-2,2.6207155E-1,-6.1008595E-3,-1.2510917E-1,9.319678E-3,-4.551725E-2,7.772624E-2,-8.405304E-3,1.4703746E-1,-2.7971322E-2,-5.6199532E-2,-1.665202E-1,-2.4881203E-1,-1.9630294E-1,6.0490776E-2,5.267796E-1,-4.756521E-2,-1.0867313E-1,3.620381E-2,-1.1485767E-1,1.7625275E-3,-7.32364E-2,7.6338924E-2,-7.977986E-3,1.8499373E-2,-9.025579E-2,2.5769886E-2,2.4162509E-1,-5.934219E-2,1.7978112E-1,1.2702107E-1,-1.5788943E-1,-1.2735392E-1,7.411995E-2,-1.1728825E-1,1.5196675E-1,1.5177754E-1,2.4736862E-1,7.2147235E-2,2.0275436E-1,3.293772E-1,-7.30246E-2],"categories":[],"categories_nodes":[],"categories_segments":[],"categories_sizes":[],"default_left":[0,0,0,0,0,0,0,0,0,0,0,0,0,0,0,0,0,0,0,0,0,0,0,0,0,0,0,0,0,0,0,0,0,0,0,0,0,0,0,0,0,0,0,0,0,0,0,0,0,0,0,0,0,0,0,0,0,0,0,0,0,0,0,0,0,0,0,0,0,0,0,0,0,0,0,0,0,0,0,0,0,0,0,0,0,0,0,0,0,0,0,0,0,0,0,0,0,0,0,0,0,0,0,0,0,0,0,0,0,0,0,0,0,0,0,0,0,0,0,0,0,0,0,0,0],"id":7,"left_children":[1,3,5,7,9,11,13,15,17,19,21,23,25,27,29,31,33,35,37,39,41,43,45,47,49,51,53,55,57,59,61,63,65,67,69,-1,71,73,75,77,79,81,83,85,87,89,91,93,95,97,99,101,103,105,107,109,111,113,115,117,119,121,123,-1,-1,-1,-1,-1,-1,-1,-1,-1,-1,-1,-1,-1,-1,-1,-1,-1,-1,-1,-1,-1,-1,-1,-1,-1,-1,-1,-1,-1,-1,-1,-1,-1,-1,-1,-1,-1,-1,-1,-1,-1,-1,-1,-1,-1,-1,-1,-1,-1,-1,-1,-1,-1,-1,-1,-1,-1,-1,-1,-1,-1,-1],"loss_changes":[2.8357993E2,1.0237243E2,1.9913104E2,3.425166E1,5.054705E1,1.4509537E2,1.2897728E1,7.016686E1,2.633967E1,1.7392502E1,1.1898763E2,7.998779E1,3.9379784E1,4.1418E0,1.8258286E0,1.5711839E1,3.6480446E1,8.050519E0,2.8873148E1,1.8335953E1,4.4632916E0,1.1570246E1,1.8626244E1,1.9388306E1,9.16758E0,2.4180702E1,1.6282234E1,2.9537344E0,2.8543682E0,2.0717316E0,2.114149E0,1.7042088E1,4.3868885E0,1.4914848E1,1.0403251E1,0E0,6.2017956E0,1.2848312E1,7.359489E0,7.3182445E0,1.30242E1,3.688694E0,3.7196896E0,1.1519493E1,8.942802E0,1.1365732E1,1.6812584E1,9.906509E0,4.3562927E0,2.533484E0,8.277111E0,1.4030968E1,1.119666E1,1.12841E1,6.5394907E0,3.9019802E0,1.7227287E0,1.7823931E0,3.5324624E0,2.2845979E0,1.6117134E0,3.0834522E0,2.2861395E0,0E0,0E0,0E0,0E0,0E0,0E0,0E0,0E0,0E0,0E0,0E0,0E0,0E0,0E0,0E0,0E0,0E0,0E0,0E0,0E0,0E0,0E0,0E0,0E0,0E0,0E0,0E0,0E0,0E0,0E0,0E0,0E0,0E0,0E0,0E0,0E0,0E0,0E0,0E0,0E0,0E0,0E0,0E0,0E0,0E0,0E0,0E0,0E0,0E0,0E0,0E0,0E0,0E0,0E0,0E0,0E0,0E0,0E0,0E0,0E0,0E0,0E0],"parents":[2147483647,0,0,1,1,2,2,3,3,4,4,5,5,6,6,7,7,8,8,9,9,10,10,11,11,12,12,13,13,14,14,15,15,16,16,17,17,18,18,19,19,20,20,21,21,22,22,23,23,24,24,25,25,26,26,27,27,28,28,29,29,30,30,31,31,32,32,33,33,34,34,36,36,37,37,38,38,39,39,40,40,41,41,42,42,43,43,44,44,45,45,46,46,47,47,48,48,49,49,50,50,51,51,52,52,53,53,54,54,55,55,56,56,57,57,58,58,59,59,60,60,61,61,62,62],"right_children":[2,4,6,8,10,12,14,16,18,20,22,24,26,28,30,32,34,36,38,40,42,44,46,48,50,52,54,56,58,60,62,64,66,68,70,-1,72,74,76,78,80,82,84,86,88,90,92,94,96,98,100,102,104,106,108,110,112,114,116,118,120,122,124,-1,-1,-1,-1,-1,-1,-1,-1,-1,-1,-1,-1,-1,-1,-1,-1,-1,-1,-1,-1,-1,-1,-1,-1,-1,-1,-1,-1,-1,-1,-1,-1,-1,-1,-1,-1,-1,-1,-1,-1,-1,-1,-1,-1,-1,-1,-1,-1,-1,-1,-1,-1,-1,-1,-1,-1,-1,-1,-1,-1,-1,-1],"split_conditions":[8.140859E-1,4.3732867E-1,2.6421862E0,1.9388845E0,-2.9221937E-2,9.910109E-2,3.2458612E-1,3.096665E-1,7.3839617E-1,3.1431491E0,1.9388845E0,-2.9221937E-2,7.030951E-1,1.0054151E0,1.0054151E0,1.1376145E0,1.796859E0,-2.043007E0,1.0709455E0,-1.389399E0,6.648459E-1,7.3839617E-1,3.9852762E-1,1.0054151E0,-2.670867E0,1.1376145E0,1.3375411E0,1.1376145E0,-1.198831E0,-1.3577917E0,1.2164909E0,-5.220182E-1,5.7144076E-1,-1.7009702E0,5.7144076E-1,4.3920073E-1,1.3531245E0,-6.517641E-1,-1.8175218E0,2.1515493E0,1.0054151E0,3.8196044E0,3.7068617E0,4.3143174E-1,-7.7697984E-3,1.2940418E0,1.2270447E0,-1.2341367E0,1.1376145E0,-3.51869E-1,1.0054151E0,-1.4715096E0,1.0054151E0,1.0054151E0,-3.6383477E-1,1.035997E0,-2.308561E0,-2.049122E0,-1.28411E0,6.628137E-1,5.7144076E-1,6.609646E-1,1.3157511E0,3.9778154E-2,-3.8597424E-2,6.934421E-2,2.530438E-2,3.685122E-2,-8.170017E-2,3.148327E-1,6.625836E-2,-7.465074E-2,7.3926665E-2,2.3306169E-2,1.1739209E-1,-2.8521487E-1,7.6221945E-3,1.148939E-2,-3.5819054E-1,1.3572603E-1,7.6394625E-2,-8.129069E-2,-3.1080237E-1,-5.2540284E-2,2.6207155E-1,-6.1008595E-3,-1.2510917E-1,9.319678E-3,-4.551725E-2,7.772624E-2,-8.405304E-3,1.4703746E-1,-2.7971322E-2,-5.6199532E-2,-1.665202E-1,-2.4881203E-1,-1.9630294E-1,6.0490776E-2,5.267796E-1,-4.756521E-2,-1.0867313E-1,3.620381E-2,-1.1485767E-1,1.7625275E-3,-7.32364E-2,7.6338924E-2,-7.977986E-3,1.8499373E-2,-9.025579E-2,2.5769886E-2,2.4162509E-1,-5.934219E-2,1.7978112E-1,1.2702107E-1,-1.5788943E-1,-1.2735392E-1,7.411995E-2,-1.1728825E-1,1.5196675E-1,1.5177754E-1,2.4736862E-1,7.2147235E-2,2.0275436E-1,3.293772E-1,-7.30246E-2],"split_indices":[4,1,4,9,3,1,1,3,3,1,9,3,3,6,6,11,3,1,3,7,0,3,7,6,0,11,3,11,7,7,7,0,5,7,5,0,7,1,1,0,6,1,1,3,2,3,0,0,11,1,6,0,6,6,2,7,0,7,0,1,5,3,3,0,0,0,0,0,0,0,0,0,0,0,0,0,0,0,0,0,0,0,0,0,0,0,0,0,0,0,0,0,0,0,0,0,0,0,0,0,0,0,0,0,0,0,0,0,0,0,0,0,0,0,0,0,0,0,0,0,0,0,0,0,0],"split_type":[0,0,0,0,0,0,0,0,0,0,0,0,0,0,0,0,0,0,0,0,0,0,0,0,0,0,0,0,0,0,0,0,0,0,0,0,0,0,0,0,0,0,0,0,0,0,0,0,0,0,0,0,0,0,0,0,0,0,0,0,0,0,0,0,0,0,0,0,0,0,0,0,0,0,0,0,0,0,0,0,0,0,0,0,0,0,0,0,0,0,0,0,0,0,0,0,0,0,0,0,0,0,0,0,0,0,0,0,0,0,0,0,0,0,0,0,0,0,0,0,0,0,0,0,0],"sum_hessian":[1.533674E4,1.036326E4,4.9734805E3,6.02418E3,4.339079E3,4.5921753E3,3.813054E2,4.2191064E3,1.8050737E3,1.5594983E3,2.7795808E3,2.2600134E3,2.3321616E3,1.7722362E2,2.0408176E2,2.2614666E3,1.9576399E3,3.0383527E2,1.5012385E3,1.5128627E3,4.663566E1,1.406845E3,1.372736E3,1.4250396E3,8.349739E2,1.5212136E3,8.10948E2,1.01733406E2,7.549022E1,1.2501072E2,7.907103E1,1.1555735E3,1.1058931E3,1.8803807E3,7.725907E1,1.935098E0,3.0190018E2,6.253463E2,8.7589215E2,1.5132701E2,1.3615356E3,3.34342E1,1.3201458E1,3.2738852E2,1.0794564E3,8.088779E2,5.63858E2,7.770996E2,6.4793994E2,3.9593787E0,8.3101447E2,7.688865E2,7.523272E2,5.906172E2,2.2033076E2,5.2297184E1,4.943622E1,1.1410745E1,6.4079475E1,1.4496145E1,1.1051458E2,6.978481E1,9.286219E0,3.634943E2,7.920792E2,2.6907434E2,8.368187E2,1.00372986E2,1.7800078E3,2.0006905E1,5.7252167E1,2.748596E2,2.704057E1,1.8667354E2,4.386728E2,6.793406E0,8.6909875E2,1.4734573E2,3.9812865E0,7.590328E2,6.0250287E2,2.5501904E1,7.932295E0,9.022694E0,4.178764E0,1.1036187E2,2.1702663E2,4.8702057E2,5.9243585E2,6.328974E2,1.7598053E2,5.0948364E2,5.437433E1,8.335624E1,6.9374335E2,3.5856293E2,2.89377E2,2.139174E0,1.8202049E0,4.937907E2,3.372238E2,5.9561016E1,7.0932544E2,4.599041E2,2.924231E2,3.50048E2,2.405692E2,7.493558E1,1.4539519E2,4.4126556E1,8.170627E0,2.4177017E0,4.7018517E1,1.6307554E0,9.779989E0,8.153588E0,5.5925888E1,2.8522627E0,1.1643883E1,2.7672464E1,8.284211E1,4.2297943E1,2.748687E1,8.185841E0,1.1003785E0],"tree_param":{"num_deleted":"0","num_feature":"13","num_nodes":"125","size_leaf_vector":"1"}},{"base_weights":[-3.481246E-2,-1.6634712E-1,5.001845E-2,-6.6160694E-2,-3.6802736E-1,-3.0547893E-2,1.2886132E-1,-1.2179033E-2,-1.5340886E-1,-5.11481E-1,-1.5202256E-1,2.0864429E-2,-1.5184157E-1,7.164357E-2,2.5945792E-1,5.2302632E-2,-8.7590665E-2,-9.0922285E-3,-2.0790051E-1,-5.44486E-1,4.906628E-2,-1.899269E-1,3.0670074E-1,1.3123482E-1,-4.070709E-2,-1.9831955E-1,3.7307128E-1,-3.6605312E-3,1.5444747E-1,-3.5043762E-3,3.0386886E-1,-1.4669697E-2,1.9523652E-1,-1.7611964E-1,7.036265E-2,-1.2551135E-1,1.1264857E-1,3.8884816E-1,-2.226704E-1,-4.334952E-1,-6.851333E-1,1.6485335E-1,-4.29235E-1,-2.8458628E-1,-8.251537E-2,-2.9857066E-1,4.0920296E-1,5.7065893E-2,2.3966444E-1,-1.683397E-1,9.913101E-2,-3.1362304E-1,-5.292594E-2,-1.0010142E-1,4.9238256E-1,5.0247226E-2,-1.2259248E-1,1.9491073E-1,-1.5984003E-1,-1.906969E-1,1.948074E-1,3.7817144E-1,1.1836503E-1,-8.972631E-3,1.6981816E-1,1.2880673E-1,3.715011E-2,1.72584E-2,-7.656718E-2,9.817012E-2,-1.9452684E-2,9.646452E-3,-8.653189E-2,1.4079168E-1,9.574781E-3,-8.233688E-3,3.3098853E-1,-7.626734E-2,-1.077731E-3,-1.6265702E-1,-9.128375E-2,-2.3782061E-1,-1.6657482E-1,-1.450855E-2,3.2947332E-1,-3.5920265E-1,1.4067252E-1,-3.5126105E-2,-1.03169836E-1,-1.049047E-1,-5.778818E-4,1.1998262E-1,-2.6987287E-1,4.0977705E-2,2.0237948E-1,4.7738577E-4,6.47541E-2,-2.1210183E-1,7.844021E-2,-6.1090063E-2,1.7829688E-2,-4.759165E-2,4.35576E-2,1.051426E-1,-1.0304348E-1,-9.0696226E-4,-2.0863746E-1,-1.8899296E-1,8.509444E-2,1.6108288E-1,-1.3879687E-1,4.9945075E-2,-2.6405502E-2,-4.7107894E-2,1.1807657E-1,8.433409E-2,1.1739937E-2,-2.7616585E-2,-2.1451595E-1,-1.9820271E-1,-2.3123998E-2,8.068476E-2,-2.351109E-1,1.23931676E-1,4.2728994E-2,-3.1238872E-1,4.0033422E-2],"categories":[],"categories_nodes":[],"categories_segments":[],"categories_sizes":[],"default_left":[0,0,0,0,0,0,0,0,0,0,0,0,0,0,0,0,0,0,0,0,0,0,0,0,0,0,0,0,0,0,0,0,0,0,0,0,0,0,0,0,0,0,0,0,0,0,0,0,0,0,0,0,0,0,0,0,0,0,0,0,0,0,0,0,0,0,0,0,0,0,0,0,0,0,0,0,0,0,0,0,0,0,0,0,0,0,0,0,0,0,0,0,0,0,0,0,0,0,0,0,0,0,0,0,0,0,0,0,0,0,0,0,0,0,0,0,0,0,0,0,0,0,0,0,0,0,0],"id":8,"left_children":[1,3,5,7,9,11,13,15,17,19,21,23,25,27,29,31,33,35,37,39,41,43,45,47,49,51,53,55,57,59,61,63,65,67,69,71,73,75,77,79,81,83,85,87,89,91,93,95,97,99,101,103,105,107,109,111,113,115,117,119,121,123,125,-1,-1,-1,-1,-1,-1,-1,-1,-1,-1,-1,-1,-1,-1,-1,-1,-1,-1,-1,-1,-1,-1,-1,-1,-1,-1,-1,-1,-1,-1,-1,-1,-1,-1,-1,-1,-1,-1,-1,-1,-1,-1,-1,-1,-1,-1,-1,-1,-1,-1,-1,-1,-1,-1,-1,-1,-1,-1,-1,-1,-1,-1,-1,-1],"loss_changes":[1.6494746E2,1.1708322E2,5.7090607E1,1.8241295E1,5.9520264E1,2.7726915E1,3.392359E1,1.1645821E1,1.1640404E1,2.1401672E1,1.3429255E1,2.122958E1,3.236492E1,1.9703888E1,1.6157402E1,1.2362547E1,1.5448055E1,5.7800236E0,9.558212E0,1.673706E1,3.6794806E0,7.204813E0,3.7872796E0,8.9825325E0,3.5811733E1,2.0378265E1,6.1468916E0,1.062246E1,1.917062E1,7.4941306E0,1.6268768E1,7.805877E0,6.83451E0,1.3094166E1,1.3815544E1,5.363475E0,5.726323E0,7.858156E0,7.2527046E0,8.439278E0,6.262207E0,1.0637461E1,9.514166E0,3.7100067E0,7.2E0,4.194148E0,3.5934353E0,5.86226E0,9.556795E0,8.444239E0,1.1393336E1,1.3568619E1,1.7289234E1,4.770343E0,3.9264927E0,1.8337997E1,9.246458E0,1.7899967E1,6.415427E0,5.493866E0,7.3230863E0,6.896942E0,6.0836935E0,0E0,0E0,0E0,0E0,0E0,0E0,0E0,0E0,0E0,0E0,0E0,0E0,0E0,0E0,0E0,0E0,0E0,0E0,0E0,0E0,0E0,0E0,0E0,0E0,0E0,0E0,0E0,0E0,0E0,0E0,0E0,0E0,0E0,0E0,0E0,0E0,0E0,0E0,0E0,0E0,0E0,0E0,0E0,0E0,0E0,0E0,0E0,0E0,0E0,0E0,0E0,0E0,0E0,0E0,0E0,0E0,0E0,0E0,0E0,0E0,0E0,0E0,0E0,0E0],"parents":[2147483647,0,0,1,1,2,2,3,3,4,4,5,5,6,6,7,7,8,8,9,9,10,10,11,11,12,12,13,13,14,14,15,15,16,16,17,17,18,18,19,19,20,20,21,21,22,22,23,23,24,24,25,25,26,26,27,27,28,28,29,29,30,30,31,31,32,32,33,33,34,34,35,35,36,36,37,37,38,38,39,39,40,40,41,41,42,42,43,43,44,44,45,45,46,46,47,47,48,48,49,49,50,50,51,51,52,52,53,53,54,54,55,55,56,56,57,57,58,58,59,59,60,60,61,61,62,62],"right_children":[2,4,6,8,10,12,14,16,18,20,22,24,26,28,30,32,34,36,38,40,42,44,46,48,50,52,54,56,58,60,62,64,66,68,70,72,74,76,78,80,82,84,86,88,90,92,94,96,98,100,102,104,106,108,110,112,114,116,118,120,122,124,126,-1,-1,-1,-1,-1,-1,-1,-1,-1,-1,-1,-1,-1,-1,-1,-1,-1,-1,-1,-1,-1,-1,-1,-1,-1,-1,-1,-1,-1,-1,-1,-1,-1,-1,-1,-1,-1,-1,-1,-1,-1,-1,-1,-1,-1,-1,-1,-1,-1,-1,-1,-1,-1,-1,-1,-1,-1,-1,-1,-1,-1,-1,-1,-1],"split_conditions":[-1.3641429E-2,8.140859E-1,1.1376145E0,1.0054151E0,-2.9221937E-2,8.140859E-1,1.9388845E0,1.2763372E-1,5.7144076E-1,2.6421862E0,2.6421862E0,-2.9221937E-2,2.6421862E0,7.755562E-1,7.1581745E-1,6.1521834E-1,9.272053E-1,1.1376145E0,-2.0462017E0,1.0054151E0,9.9057066E-1,1.1376145E0,-1.2765408E0,3.699148E-1,1.9388845E0,7.755562E-1,-9.21804E-1,8.140859E-1,2.5794365E0,7.755562E-1,1.2731973E0,1.7607056E0,5.7144076E-1,-7.3186964E-1,-2.9221937E-2,8.6727154E-1,-1.0396125E0,-2.221108E0,1.1395916E0,1.1376145E0,1.1376145E0,5.674115E-1,1.1959499E0,5.7144076E-1,7.239313E-1,-9.72458E-2,1.1376145E0,1.2265263E0,-2.0462017E0,1.52825E0,7.3839617E-1,-1.7588556E0,3.1431491E0,6.628137E-1,1.6987057E0,-2.9221937E-2,2.6421862E0,4.3143174E-1,3.8196044E0,-1.0396125E0,1.4769108E0,1.1520848E0,-2.4459875E0,-8.972631E-3,1.6981816E-1,1.2880673E-1,3.715011E-2,1.72584E-2,-7.656718E-2,9.817012E-2,-1.9452684E-2,9.646452E-3,-8.653189E-2,1.4079168E-1,9.574781E-3,-8.233688E-3,3.3098853E-1,-7.626734E-2,-1.077731E-3,-1.6265702E-1,-9.128375E-2,-2.3782061E-1,-1.6657482E-1,-1.450855E-2,3.2947332E-1,-3.5920265E-1,1.4067252E-1,-3.5126105E-2,-1.03169836E-1,-1.049047E-1,-5.778818E-4,1.1998262E-1,-2.6987287E-1,4.0977705E-2,2.0237948E-1,4.7738577E-4,6.47541E-2,-2.1210183E-1,7.844021E-2,-6.1090063E-2,1.7829688E-2,-4.759165E-2,4.35576E-2,1.051426E-1,-1.0304348E-1,-9.0696226E-4,-2.0863746E-1,-1.8899296E-1,8.509444E-2,1.6108288E-1,-1.3879687E-1,4.9945075E-2,-2.6405502E-2,-4.7107894E-2,1.1807657E-1,8.433409E-2,1.1739937E-2,-2.7616585E-2,-2.1451595E-1,-1.9820271E-1,-2.3123998E-2,8.068476E-2,-2.351109E-1,1.23931676E-1,4.2728994E-2,-3.1238872E-1,4.0033422E-2],"split_indices":[1,4,11,6,3,4,9,0,5,4,4,3,4,1,3,7,0,11,0,6,7,11,7,7,9,1,0,4,1,1,3,3,5,7,3,8,7,0,0,11,11,7,7,5,3,0,11,1,0,3,3,0,1,1,3,3,4,3,1,7,0,0,0,0,0,0,0,0,0,0,0,0,0,0,0,0,0,0,0,0,0,0,0,0,0,0,0,0,0,0,0,0,0,0,0,0,0,0,0,0,0,0,0,0,0,0,0,0,0,0,0,0,0,0,0,0,0,0,0,0,0,0,0,0,0,0,0],"split_type":[0,0,0,0,0,0,0,0,0,0,0,0,0,0,0,0,0,0,0,0,0,0,0,0,0,0,0,0,0,0,0,0,0,0,0,0,0,0,0,0,0,0,0,0,0,0,0,0,0,0,0,0,0,0,0,0,0,0,0,0,0,0,0,0,0,0,0,0,0,0,0,0,0,0,0,0,0,0,0,0,0,0,0,0,0,0,0,0,0,0,0,0,0,0,0,0,0,0,0,0,0,0,0,0,0,0,0,0,0,0,0,0,0,0,0,0,0,0,0,0,0,0,0,0,0,0,0],"sum_hessian":[1.4780872E4,5.7947915E3,8.98608E3,3.8724473E3,1.9223441E3,4.444766E3,4.5413145E3,2.3930027E3,1.4794447E3,1.1543479E3,7.6799615E2,3.1221987E3,1.3225675E3,3.1588772E3,1.3824373E3,1.29015E3,1.1028525E3,4.05823E2,1.0736217E3,1.0901864E3,6.416156E1,7.0992126E2,5.8074883E1,1.1176382E3,2.0045605E3,1.215559E3,1.0700851E2,1.6548591E3,1.504018E3,1.9987508E2,1.1825621E3,8.791279E2,4.110221E2,7.066676E2,3.9618497E2,2.0742973E2,1.9839326E2,2.531928E1,1.0483025E3,6.11616E2,4.785703E2,5.2184166E1,1.1977397E1,3.7648447E2,3.334368E2,8.133582E0,4.9941303E1,6.6457587E2,4.5306238E2,1.0479108E3,9.566498E2,6.7728516E2,5.3827374E2,2.158123E1,8.542728E1,1.139115E3,5.157441E2,1.3328044E3,1.7121347E2,1.0283983E2,9.703525E1,8.436171E2,3.3894507E2,8.575727E2,2.155526E1,9.488739E1,3.161347E2,1.7880632E2,5.278613E2,1.3613211E2,2.6005286E2,1.058251E2,1.0160463E2,3.57307E1,1.6266257E2,1.6605297E1,8.713985E0,9.161831E2,1.3211932E2,3.3044986E2,2.811662E2,2.589447E2,2.1962561E2,4.3252216E1,8.931949E0,6.2764997E0,5.7008967E0,9.923124E1,2.772532E2,7.649695E1,2.5693985E2,3.9163675E0,4.2172146E0,2.5382942E1,2.455836E1,4.9325385E2,1.7132199E2,9.492142E0,4.4357025E2,9.0741113E2,1.404996E2,1.4465833E2,8.1199146E2,2.8676098E1,6.486091E2,5.004135E2,3.786027E1,8.795254E0,1.2785976E1,8.2037346E1,3.389931E0,6.1874646E2,5.203686E2,4.8414325E2,3.160083E1,8.5748956E2,4.7531494E2,1.5362369E2,1.758978E1,1.9083904E1,8.375593E1,9.08748E1,6.160445E0,7.3408234E2,1.0953477E2,3.4773452E0,3.354677E2],"tree_param":{"num_deleted":"0","num_feature":"13","num_nodes":"127","size_leaf_vector":"1"}},{"base_weights":[-2.6604814E-2,-1.6639788E-1,2.117521E-2,-7.759263E-2,-3.5004014E-1,8.3623186E-2,-6.611204E-2,-4.9584012E-2,-2.4440238E-1,-4.832726E-1,-1.6196477E-1,5.1543713E-2,3.0086657E-1,-1.2539562E-2,-2.0249064E-1,-8.932329E-2,1.3934249E-1,6.7078924E-1,-2.554846E-1,-5.179654E-1,5.6855753E-2,8.264372E-2,-2.2254254E-1,1.1635482E-1,-1.754051E-2,3.264006E-1,-3.8089088E-1,7.379592E-2,-4.5361094E-2,-3.168135E-1,-3.0488212E-2,3.529348E-1,-1.0382681E-1,-4.4025285E-3,2.9972404E-1,3.2702368E-1,2.7220542E-2,-3.7524244E-1,-1.7553192E-1,-4.1145724E-1,-6.648335E-1,2.2982484E-1,-4.7189447E-1,3.4893712E-1,-3.164006E-1,-2.6058552E-1,3.0524513E-1,7.47197E-2,2.1446034E-1,-6.1695457E-2,6.8313554E-2,3.6583018E-1,-1.1301551E-1,-8.341174E-1,2.2130555E-1,1.8670408E-1,-2.34948E-2,-7.495712E-2,9.132807E-2,-3.5510257E-1,1.2225306E-1,-1.557343E-1,1.1049379E-1,7.835787E-2,5.789003E-1,6.9947406E-3,-4.4762287E-2,8.224909E-2,-3.169965E-2,4.7691673E-2,1.6643125E-1,-7.286944E-2,-1.8589407E-1,3.862519E-1,-5.8188003E-2,1.6963698E-3,-1.3998482E-1,9.4967715E-2,-2.0115064E-1,-4.8287828E-2,2.0822324E-1,-3.2757378E-1,1.16917975E-1,-1.095983E-2,3.3684933E-1,-1.2618636E-1,2.108395E-1,-4.363455E-2,-1.08178146E-1,1.1196203E-3,2.4503127E-1,5.9470177E-2,1.024293E-2,-1.4793954E-2,7.941237E-2,-3.9705135E-2,2.6808078E-3,7.2085775E-2,-1.8984715E-4,-1.5437541E-2,1.1993744E-1,2.582972E-2,-3.144518E-1,-3.6368418E-1,-1.3716607E-1,2.582385E-1,-9.624198E-3,-6.713909E-2,6.8253696E-2,-2.8104441E-2,6.7129835E-2,-1.5495903E-3,-3.5949916E-2,4.9787953E-2,-4.843071E-2,-1.2994547E-1,-5.5866115E-2,1.357743E-2,2.8897876E-1,-6.383013E-2,1.2196777E-1,9.1504395E-2,-6.62348E-2],"categories":[],"categories_nodes":[],"categories_segments":[],"categories_sizes":[],"default_left":[0,0,0,0,0,0,0,0,0,0,0,0,0,0,0,0,0,0,0,0,0,0,0,0,0,0,0,0,0,0,0,0,0,0,0,0,0,0,0,0,0,0,0,0,0,0,0,0,0,0,0,0,0,0,0,0,0,0,0,0,0,0,0,0,0,0,0,0,0,0,0,0,0,0,0,0,0,0,0,0,0,0,0,0,0,0,0,0,0,0,0,0,0,0,0,0,0,0,0,0,0,0,0,0,0,0,0,0,0,0,0,0,0,0,0,0,0,0,0,0,0,0,0],"id":9,"left_children":[1,3,5,7,9,11,13,15,17,19,21,23,25,27,29,31,33,35,37,39,41,43,45,47,49,51,53,55,57,59,61,63,65,67,69,-1,-1,71,73,75,77,79,81,83,85,87,89,91,93,95,97,99,101,103,105,107,109,111,113,115,117,119,121,-1,-1,-1,-1,-1,-1,-1,-1,-1,-1,-1,-1,-1,-1,-1,-1,-1,-1,-1,-1,-1,-1,-1,-1,-1,-1,-1,-1,-1,-1,-1,-1,-1,-1,-1,-1,-1,-1,-1,-1,-1,-1,-1,-1,-1,-1,-1,-1,-1,-1,-1,-1,-1,-1,-1,-1,-1,-1,-1,-1],"loss_changes":[9.609629E1,5.9739525E1,5.845478E1,1.1535082E1,2.9847275E1,4.3549824E1,3.2674774E1,1.5909815E1,3.7726288E0,1.3119263E1,7.3786097E0,2.4395664E1,1.4122437E1,9.105733E0,2.479329E1,1.126212E1,8.493892E0,1.001375E0,3.300171E0,9.995682E0,4.046738E0,1.0664863E1,8.078651E0,1.1466431E1,1.0004566E1,1.3479889E1,8.233641E0,9.728047E0,9.424868E0,1.2780037E1,8.92951E0,7.5671825E0,9.784925E0,5.53665E0,6.162677E0,0E0,0E0,4.3733387E0,5.9839473E0,8.818001E0,1.7384262E0,6.1203504E0,6.270914E0,1.7953617E1,4.5739713E0,4.2326565E0,4.1991167E0,9.892031E0,1.1107037E1,8.697483E0,1.0628874E1,1.0110756E1,1.2124868E1,1.8739147E0,2.2077644E0,6.9161425E0,8.287975E0,5.9947433E0,7.8517637E0,9.107918E0,3.9395776E0,8.671364E0,1.5406361E1,0E0,0E0,0E0,0E0,0E0,0E0,0E0,0E0,0E0,0E0,0E0,0E0,0E0,0E0,0E0,0E0,0E0,0E0,0E0,0E0,0E0,0E0,0E0,0E0,0E0,0E0,0E0,0E0,0E0,0E0,0E0,0E0,0E0,0E0,0E0,0E0,0E0,0E0,0E0,0E0,0E0,0E0,0E0,0E0,0E0,0E0,0E0,0E0,0E0,0E0,0E0,0E0,0E0,0E0,0E0,0E0,0E0,0E0,0E0,0E0],"parents":[2147483647,0,0,1,1,2,2,3,3,4,4,5,5,6,6,7,7,8,8,9,9,10,10,11,11,12,12,13,13,14,14,15,15,16,16,17,17,18,18,19,19,20,20,21,21,22,22,23,23,24,24,25,25,26,26,27,27,28,28,29,29,30,30,31,31,32,32,33,33,34,34,37,37,38,38,39,39,40,40,41,41,42,42,43,43,44,44,45,45,46,46,47,47,48,48,49,49,50,50,51,51,52,52,53,53,54,54,55,55,56,56,57,57,58,58,59,59,60,60,61,61,62,62],"right_children":[2,4,6,8,10,12,14,16,18,20,22,24,26,28,30,32,34,36,38,40,42,44,46,48,50,52,54,56,58,60,62,64,66,68,70,-1,-1,72,74,76,78,80,82,84,86,88,90,92,94,96,98,100,102,104,106,108,110,112,114,116,118,120,122,-1,-1,-1,-1,-1,-1,-1,-1,-1,-1,-1,-1,-1,-1,-1,-1,-1,-1,-1,-1,-1,-1,-1,-1,-1,-1,-1,-1,-1,-1,-1,-1,-1,-1,-1,-1,-1,-1,-1,-1,-1,-1,-1,-1,-1,-1,-1,-1,-1,-1,-1,-1,-1,-1,-1,-1,-1,-1,-1,-1],"split_conditions":[-3.51869E-1,8.140859E-1,1.0054151E0,-4.646115E-1,-2.9221937E-2,1.4520113E0,8.140859E-1,-6.517641E-1,-2.4459875E0,2.6421862E0,-9.801711E-1,4.018057E-2,3.4813766E0,5.7144076E-1,5.5057573E-1,-1.4320296E0,1.1376145E0,8.6727154E-1,-2.3467217E-1,1.0054151E0,9.9057066E-1,1.0054151E0,2.6421862E0,1.9388845E0,9.272053E-1,1.3144978E0,6.1846566E-1,-7.225919E-2,1.0748125E0,2.6421862E0,1.7018224E-1,1.4426068E0,5.7144076E-1,5.7144076E-1,5.8106107E-1,3.2702368E-1,2.7220542E-2,-6.969245E-1,-2.2217886E-1,-1.2341367E0,-2.043007E0,-1.5837121E-1,1.1959499E0,-1.2193398E0,1.5018975E0,1.0249472E0,3.0254E-1,-1.1966568E0,7.3839617E-1,1.1376145E0,1.1395916E0,-1.6807227E0,1.4164901E0,2.2202511E-1,5.7144076E-1,-1.7588556E0,1.5647539E0,3.096665E-1,1.4289513E0,1.0010413E0,1.2164909E0,2.6421862E0,1.2049912E0,7.835787E-2,5.789003E-1,6.9947406E-3,-4.4762287E-2,8.224909E-2,-3.169965E-2,4.7691673E-2,1.6643125E-1,-7.286944E-2,-1.8589407E-1,3.862519E-1,-5.8188003E-2,1.6963698E-3,-1.3998482E-1,9.4967715E-2,-2.0115064E-1,-4.8287828E-2,2.0822324E-1,-3.2757378E-1,1.16917975E-1,-1.095983E-2,3.3684933E-1,-1.2618636E-1,2.108395E-1,-4.363455E-2,-1.08178146E-1,1.1196203E-3,2.4503127E-1,5.9470177E-2,1.024293E-2,-1.4793954E-2,7.941237E-2,-3.9705135E-2,2.6808078E-3,7.2085775E-2,-1.8984715E-4,-1.5437541E-2,1.1993744E-1,2.582972E-2,-3.144518E-1,-3.6368418E-1,-1.3716607E-1,2.582385E-1,-9.624198E-3,-6.713909E-2,6.8253696E-2,-2.8104441E-2,6.7129835E-2,-1.5495903E-3,-3.5949916E-2,4.9787953E-2,-4.843071E-2,-1.2994547E-1,-5.5866115E-2,1.357743E-2,2.8897876E-1,-6.383013E-2,1.2196777E-1,9.1504395E-2,-6.62348E-2],"split_indices":[1,4,6,1,3,1,4,1,0,4,7,0,1,5,3,2,11,8,0,6,7,6,4,9,0,0,3,0,7,4,7,7,5,5,7,0,0,0,0,0,1,7,7,7,0,3,0,0,3,11,0,7,2,7,5,0,1,3,7,1,7,4,3,0,0,0,0,0,0,0,0,0,0,0,0,0,0,0,0,0,0,0,0,0,0,0,0,0,0,0,0,0,0,0,0,0,0,0,0,0,0,0,0,0,0,0,0,0,0,0,0,0,0,0,0,0,0,0,0,0,0,0,0],"split_type":[0,0,0,0,0,0,0,0,0,0,0,0,0,0,0,0,0,0,0,0,0,0,0,0,0,0,0,0,0,0,0,0,0,0,0,0,0,0,0,0,0,0,0,0,0,0,0,0,0,0,0,0,0,0,0,0,0,0,0,0,0,0,0,0,0,0,0,0,0,0,0,0,0,0,0,0,0,0,0,0,0,0,0,0,0,0,0,0,0,0,0,0,0,0,0,0,0,0,0,0,0,0,0,0,0,0,0,0,0,0,0,0,0,0,0,0,0,0,0,0,0,0,0],"sum_hessian":[1.4385618E4,3.6637803E3,1.0721838E4,2.4705166E3,1.1932634E3,6.2502554E3,4.4715825E3,2.1164465E3,3.5407016E2,6.975499E2,4.9571356E2,5.4471357E3,8.0311975E2,3.2112327E3,1.26035E3,1.74907E3,3.673766E2,3.5239918E0,3.5054614E2,6.554885E2,4.2061394E1,9.832406E1,3.973895E2,2.8101343E3,2.6370015E3,7.7462866E2,2.84911E1,8.8418304E2,2.3270498E3,7.566165E2,5.0373343E2,5.4797176E1,1.6942728E3,1.942494E2,1.7312718E2,1.5350885E0,1.9889033E0,1.3886009E2,2.1168607E2,3.8215372E2,2.7333484E2,3.2119534E1,9.94186E0,5.904635E1,3.9277706E1,3.711437E2,2.6245796E1,1.9741038E3,8.3603064E2,1.7415826E3,8.954187E2,7.109971E2,6.363158E1,1.6036526E1,1.2454575E1,4.0881946E2,4.7536356E2,1.9132445E3,4.1380524E2,6.9610364E2,6.051287E1,2.6669833E2,2.3703506E2,5.2885685E1,1.9114894E0,4.457919E2,1.2484808E3,5.1331947E1,1.4291747E2,1.1260664E2,6.052054E1,9.137476E1,4.748533E1,1.7765424E0,2.0990952E2,4.4738403E1,3.374153E2,1.254796E0,2.7208005E2,1.7794401E1,1.432513E1,5.6260834E0,4.3157773E0,4.0050392E1,1.8995958E1,3.6166695E1,3.1110091E0,1.7366359E2,1.9748012E2,1.7146362E1,9.099434E0,4.8719827E2,1.4869054E3,1.3377896E2,7.0225165E2,8.7020966E2,8.7137305E2,2.5554065E2,6.3987805E2,5.3471184E1,6.575259E2,5.3209988E1,1.0421592E1,6.89844E0,9.138086E0,2.8541586E0,9.600416E0,3.656077E1,3.722587E2,3.7074597E2,1.046176E2,7.4919635E2,1.1640481E3,3.19741E2,9.406423E1,4.7501178E2,2.2109187E2,5.6402958E1,4.1099143E0,2.4270288E2,2.3995464E1,1.4939293E2,8.764214E1],"tree_param":{"num_deleted":"0","num_feature":"13","num_nodes":"123","size_leaf_vector":"1"}},{"base_weights":[-1.997369E-2,2.2352345E-2,-1.2128601E-1,-3.219189E-2,7.7277794E-2,-1.5403543E-1,2.729642E-1,-1.079136E-1,-2.0131038E-4,3.891565E-2,1.8421088E-1,-2.487166E-1,-3.5389055E-2,1.1505635E-1,4.2732334E-1,-1.605283E-1,2.0590376E-2,7.504553E-2,-4.346054E-2,5.180752E-3,9.863832E-2,-1.6186215E-1,2.1019731E-1,-3.5025713E-1,-8.069773E-2,1.0219916E-1,-8.489748E-2,3.5371536E-1,2.9050248E-2,5.2443194E-1,2.8043553E-1,1.812347E-1,-1.808341E-1,6.751218E-1,-1.9110743E-3,2.2936212E-1,3.366706E-2,-2.4458717E-1,4.097425E-3,2.8336468E-1,-4.33641E-3,7.4504626E-1,8.634062E-2,-9.181861E-2,-5.114786E-1,3.1103054E-1,1.100746E-1,-4.6609476E-1,-2.2612585E-1,-5.373436E-2,-6.099173E-1,2.1066406E-1,-1.4644412E-2,3.4258777E-1,-1.00028925E-1,1.0866402E-3,8.5857624E-1,-2.4055174E-2,4.8892826E-1,2.6979452E-1,6.1562204E-1,4.3295276E-1,3.262859E-2,-1.2074092E-1,1.1116217E-1,-3.558853E-2,-8.6460315E-2,-1.3061091E-1,2.9147547E-1,1.954075E-1,-5.862439E-3,-1.5612068E-3,1.0870491E-1,1.54910395E-2,-1.1536639E-1,-7.921345E-2,9.8971985E-2,2.0951314E-2,-3.5915904E-2,1.12940736E-1,-1.324729E-1,1.091449E-2,-2.140231E-2,2.7570528E-1,-1.8580301E-1,4.583709E-2,2.5097497E-3,4.1397784E-2,-1.1303699E-1,3.2047708E-2,1.12410456E-1,1.1751684E-1,2.472456E-2,-6.956306E-2,-1.6056891E-1,1.953475E-2,-8.0770925E-2,3.7074274E-1,-1.9741213E-2,-7.31317E-2,-2.1316658E-1,1.3354358E-1,2.5069693E-2,-1.8611427E-1,1.4253902E-2,1.5295318E-1,2.8175681E-3,-1.7024009E-2,-7.2963715E-2,6.8970904E-2,-3.5561523E-1,2.9619434E-1,-4.3535143E-2,4.30411E-3,-1.7650147E-1,2.2477826E-1,4.012114E-2,-4.6132974E-2,1.6784742E-1,1.9893984E-1,-4.3362595E-2,1.1360275E-2,1.6264775E-1,-1.2573066E-1,1.0248444E-1],"categories":[],"categories_nodes":[],"categories_segments":[],"categories_sizes":[],"default_left":[0,0,0,0,0,0,0,0,0,0,0,0,0,0,0,0,0,0,0,0,0,0,0,0,0,0,0,0,0,0,0,0,0,0,0,0,0,0,0,0,0,0,0,0,0,0,0,0,0,0,0,0,0,0,0,0,0,0,0,0,0,0,0,0,0,0,0,0,0,0,0,0,0,0,0,0,0,0,0,0,0,0,0,0,0,0,0,0,0,0,0,0,0,0,0,0,0,0,0,0,0,0,0,0,0,0,0,0,0,0,0,0,0,0,0,0,0,0,0,0,0,0,0,0,0],"id":10,"left_children":[1,3,5,7,9,11,13,15,17,19,21,23,25,27,29,31,33,35,37,39,41,43,45,47,49,51,53,55,57,59,61,63,65,67,69,71,73,75,77,79,81,83,85,87,-1,89,91,93,95,97,99,101,103,105,107,109,111,113,115,117,119,121,123,-1,-1,-1,-1,-1,-1,-1,-1,-1,-1,-1,-1,-1,-1,-1,-1,-1,-1,-1,-1,-1,-1,-1,-1,-1,-1,-1,-1,-1,-1,-1,-1,-1,-1,-1,-1,-1,-1,-1,-1,-1,-1,-1,-1,-1,-1,-1,-1,-1,-1,-1,-1,-1,-1,-1,-1,-1,-1,-1,-1,-1,-1],"loss_changes":[6.0536076E1,2.9834051E1,5.375189E1,1.2104209E1,2.0346811E1,4.3144417E1,7.7362404E0,1.0037321E1,1.1441015E1,7.359263E0,1.1813103E1,3.6419113E1,1.1630356E1,3.2586608E0,2.1515884E0,7.3407326E0,6.363791E0,8.184903E0,2.134803E1,6.184331E0,1.0417158E1,9.79196E0,1.2269691E1,1.90374E1,1.146899E1,5.730412E0,8.153488E0,7.4938707E0,2.897427E0,2.0599194E0,2.4911356E0,6.7301702E0,6.607895E0,5.150796E0,4.834399E0,8.45918E0,7.632225E0,4.858135E0,1.4708252E1,5.3816752E0,6.166252E0,6.3811417E0,6.7089043E0,5.887523E0,0E0,7.8477516E0,4.743646E0,1.1011765E1,8.110683E0,1.2035645E1,1.2631054E0,6.9492083E0,8.255858E0,2.3991776E0,7.503915E0,7.2734637E0,2.380125E0,2.3244872E0,1.0352054E0,3.4062872E0,2.6169643E0,1.7463131E0,3.8190258E0,0E0,0E0,0E0,0E0,0E0,0E0,0E0,0E0,0E0,0E0,0E0,0E0,0E0,0E0,0E0,0E0,0E0,0E0,0E0,0E0,0E0,0E0,0E0,0E0,0E0,0E0,0E0,0E0,0E0,0E0,0E0,0E0,0E0,0E0,0E0,0E0,0E0,0E0,0E0,0E0,0E0,0E0,0E0,0E0,0E0,0E0,0E0,0E0,0E0,0E0,0E0,0E0,0E0,0E0,0E0,0E0,0E0,0E0,0E0,0E0,0E0,0E0],"parents":[2147483647,0,0,1,1,2,2,3,3,4,4,5,5,6,6,7,7,8,8,9,9,10,10,11,11,12,12,13,13,14,14,15,15,16,16,17,17,18,18,19,19,20,20,21,21,22,22,23,23,24,24,25,25,26,26,27,27,28,28,29,29,30,30,31,31,32,32,33,33,34,34,35,35,36,36,37,37,38,38,39,39,40,40,41,41,42,42,43,43,45,45,46,46,47,47,48,48,49,49,50,50,51,51,52,52,53,53,54,54,55,55,56,56,57,57,58,58,59,59,60,60,61,61,62,62],"right_children":[2,4,6,8,10,12,14,16,18,20,22,24,26,28,30,32,34,36,38,40,42,44,46,48,50,52,54,56,58,60,62,64,66,68,70,72,74,76,78,80,82,84,86,88,-1,90,92,94,96,98,100,102,104,106,108,110,112,114,116,118,120,122,124,-1,-1,-1,-1,-1,-1,-1,-1,-1,-1,-1,-1,-1,-1,-1,-1,-1,-1,-1,-1,-1,-1,-1,-1,-1,-1,-1,-1,-1,-1,-1,-1,-1,-1,-1,-1,-1,-1,-1,-1,-1,-1,-1,-1,-1,-1,-1,-1,-1,-1,-1,-1,-1,-1,-1,-1,-1,-1,-1,-1,-1,-1],"split_conditions":[8.140859E-1,1.1376145E0,2.6421862E0,-2.3912647E-1,8.8829875E-1,-2.9221937E-2,3.2458612E-1,1.9388845E0,6.298019E-2,5.577159E-1,-1.5339761E0,5.500712E-1,5.7144076E-1,5.7144076E-1,1.0054151E0,-1.7901186E0,-1.4320296E0,-8.468442E-1,7.3839617E-1,-1.4320296E0,5.674115E-1,1.4965104E0,1.0054151E0,1.1376145E0,3.1431491E0,1.026471E-1,-1.4320296E0,7.442897E-1,1.1959499E0,5.7144076E-1,7.043601E-1,-2.1922832E0,1.0054151E0,-9.635206E-1,-2.0462017E0,-4.1477406E-1,1.4289513E0,1.5179081E0,8.6727154E-1,3.0369014E-1,1.0054151E0,1.52825E0,1.2763372E-1,9.0909284E-1,-5.114786E-1,5.7144076E-1,-1.0717237E0,5.7144076E-1,-1.1466836E0,-2.4459875E0,5.7144076E-1,-3.6383477E-1,5.1475847E-1,4.774463E-1,1.3112047E0,2.5871024E-1,1.304509E0,1.6029549E0,1.3707421E0,-1.8469894E-1,1.3707421E0,6.628137E-1,1.1376145E0,-1.2074092E-1,1.1116217E-1,-3.558853E-2,-8.6460315E-2,-1.3061091E-1,2.9147547E-1,1.954075E-1,-5.862439E-3,-1.5612068E-3,1.0870491E-1,1.54910395E-2,-1.1536639E-1,-7.921345E-2,9.8971985E-2,2.0951314E-2,-3.5915904E-2,1.12940736E-1,-1.324729E-1,1.091449E-2,-2.140231E-2,2.7570528E-1,-1.8580301E-1,4.583709E-2,2.5097497E-3,4.1397784E-2,-1.1303699E-1,3.2047708E-2,1.12410456E-1,1.1751684E-1,2.472456E-2,-6.956306E-2,-1.6056891E-1,1.953475E-2,-8.0770925E-2,3.7074274E-1,-1.9741213E-2,-7.31317E-2,-2.1316658E-1,1.3354358E-1,2.5069693E-2,-1.8611427E-1,1.4253902E-2,1.5295318E-1,2.8175681E-3,-1.7024009E-2,-7.2963715E-2,6.8970904E-2,-3.5561523E-1,2.9619434E-1,-4.3535143E-2,4.30411E-3,-1.7650147E-1,2.2477826E-1,4.012114E-2,-4.6132974E-2,1.6784742E-1,1.9893984E-1,-4.3362595E-2,1.1360275E-2,1.6264775E-1,-1.2573066E-1,1.0248444E-1],"split_indices":[4,11,4,1,1,3,1,9,3,7,0,1,5,5,6,7,2,0,3,2,7,7,6,11,1,0,2,3,7,5,2,7,6,7,0,7,7,7,8,7,6,3,0,3,0,5,0,5,0,0,5,2,3,0,3,3,7,3,7,0,7,1,11,0,0,0,0,0,0,0,0,0,0,0,0,0,0,0,0,0,0,0,0,0,0,0,0,0,0,0,0,0,0,0,0,0,0,0,0,0,0,0,0,0,0,0,0,0,0,0,0,0,0,0,0,0,0,0,0,0,0,0,0,0,0],"split_type":[0,0,0,0,0,0,0,0,0,0,0,0,0,0,0,0,0,0,0,0,0,0,0,0,0,0,0,0,0,0,0,0,0,0,0,0,0,0,0,0,0,0,0,0,0,0,0,0,0,0,0,0,0,0,0,0,0,0,0,0,0,0,0,0,0,0,0,0,0,0,0,0,0,0,0,0,0,0,0,0,0,0,0,0,0,0,0,0,0,0,0,0,0,0,0,0,0,0,0,0,0,0,0,0,0,0,0,0,0,0,0,0,0,0,0,0,0,0,0,0,0,0,0,0,0],"sum_hessian":[1.4115432E4,9.956575E3,4.158856E3,4.995831E3,4.960744E3,3.8404485E3,3.1840756E2,1.4830586E3,3.5127727E3,3.651968E3,1.308776E3,2.1353325E3,1.7051161E3,1.582573E2,1.6015027E2,1.0520554E3,4.310031E2,1.2820276E3,2.230745E3,2.3344304E3,1.3175376E3,9.1046036E1,1.21773E3,1.3302965E3,8.05036E2,4.5091623E2,1.2541998E3,4.109891E1,1.1715838E2,9.486442E1,6.528585E1,5.8557636E1,9.934978E2,1.3360614E1,4.1764252E2,2.7011597E2,1.01191156E3,4.2581113E2,1.804934E3,7.627119E1,2.2581592E3,2.348534E1,1.2940522E3,8.8106186E1,2.9398506E0,6.0566266E2,6.1206726E2,6.867116E2,6.4358496E2,7.670566E2,3.797946E1,2.3342593E2,2.174903E2,4.213668E1,1.2120631E3,2.4787682E1,1.631123E1,1.0587942E2,1.1278966E1,2.6058315E1,6.88061E1,3.9950474E1,2.5335375E1,1.4064677E1,4.4492958E1,6.303778E2,3.6312E2,2.7165213E0,1.0644093E1,1.0030518E1,4.07612E2,9.808049E1,1.7203548E2,9.710644E2,4.0847202E1,4.1238437E2,1.3426752E1,1.1792506E3,6.256833E2,6.8016495E1,8.254693E0,1.4048828E3,8.532763E2,2.1118923E1,2.366417E0,6.98141E2,5.9591125E2,4.9059E1,3.9047188E1,1.445954E2,4.610673E2,5.355625E1,5.58511E2,1.5749568E2,5.2921594E2,8.291648E1,5.6066846E2,6.172639E0,7.608839E2,8.926176E0,2.9053286E1,8.117168E1,1.5225426E2,1.9404896E1,1.980854E2,2.7701199E1,1.4435481E1,9.317924E2,2.802707E2,2.1456018E1,3.3316631E0,1.4471383E1,1.8398461E0,1.0004541E2,5.8340025E0,5.8683662E0,5.410599E0,1.0774257E1,1.5284058E1,6.4878784E1,3.9273162E0,8.943084E0,3.1007391E1,1.0145908E1,1.51894655E1],"tree_param":{"num_deleted":"0","num_feature":"13","num_nodes":"125","size_leaf_vector":"1"}},{"base_weights":[-1.4896016E-2,2.7447809E-2,-7.692305E-2,6.1684367E-3,1.7183797E-1,-3.425385E-2,-1.889579E-1,5.3246062E-2,-5.254355E-2,9.6482955E-2,3.4679025E-1,-6.642964E-2,3.4871593E-2,-3.467825E-1,-1.0592688E-1,2.2874255E-2,1.24621965E-1,-1.139345E-1,9.480566E-3,2.008274E-1,-6.396E-2,-4.375558E-1,3.9787203E-1,1.5440705E-2,-1.6703165E-1,6.163489E-2,-2.6770046E-1,-4.8244604E-1,-1.780143E-1,7.113829E-2,-1.7376769E-1,1.15814E-1,-7.5130127E-3,1.3619427E-1,-3.106682E-1,-1.6984433E-1,7.37385E-3,-3.5693068E-2,1.054479E-1,2.3973276E-1,-4.7712082E-1,-2.1556921E-1,6.3574724E-2,1.277508E-1,-9.4819415E-1,4.225829E-1,-5.246879E-1,-1.4980559E-1,3.924445E-2,-3.728281E-1,-1.1011964E-1,1.1932583E-1,-4.9707588E-2,-2.1560134E-1,-6.541721E-1,-5.151432E-1,-8.022318E-2,-2.8751665E-1,-4.4533763E-2,1.0317278E-1,-4.5766595E-1,3.950817E-1,-1.9238721E-1,1.3982108E-1,1.1480857E-2,-2.2488259E-2,1.2496201E-2,3.792119E-2,1.9555725E-1,-1.2836613E-1,1.811737E-1,-1.0759611E-2,-7.019211E-2,-5.3239577E-2,3.269569E-2,-2.3184298E-2,4.8043463E-2,2.7666968E-1,2.7080424E-2,-4.1637896E-3,9.819213E-2,-8.8839896E-2,-2.9059848E-1,-1.9899887E-1,-4.0910974E-2,4.317216E-2,-1.5344958E-1,1.2844446E-1,-2.1186005E-1,-3.5245112E-1,-3.6665663E-2,1.1762564E-2,1.4220913E-1,-3.240922E-1,3.8475927E-2,-3.0010402E-2,-1.9232741E-1,1.1516741E-1,5.5233957E-3,-1.5750243E-1,-6.263286E-2,-4.515062E-2,4.1686364E-2,-4.119148E-2,5.223132E-2,-2.8789986E-2,7.929158E-2,-8.275909E-2,7.073139E-2,-3.7753242E-1,-8.516246E-2,8.386183E-2,-1.6085589E-1,3.842089E-2,-1.7699146E-1,1.1745584E-1,-1.00106485E-1,8.478447E-2,-8.004507E-2,1.6060616E-1,1.7288888E-2,-1.934861E-1,7.964625E-2,4.1902135E-3,3.2632548E-1,-8.614843E-2,-2.1846563E-2],"categories":[],"categories_nodes":[],"categories_segments":[],"categories_sizes":[],"default_left":[0,0,0,0,0,0,0,0,0,0,0,0,0,0,0,0,0,0,0,0,0,0,0,0,0,0,0,0,0,0,0,0,0,0,0,0,0,0,0,0,0,0,0,0,0,0,0,0,0,0,0,0,0,0,0,0,0,0,0,0,0,0,0,0,0,0,0,0,0,0,0,0,0,0,0,0,0,0,0,0,0,0,0,0,0,0,0,0,0,0,0,0,0,0,0,0,0,0,0,0,0,0,0,0,0,0,0,0,0,0,0,0,0,0,0,0,0,0,0,0,0,0,0,0,0,0,0],"id":11,"left_children":[1,3,5,7,9,11,13,15,17,19,21,23,25,27,29,31,33,35,37,39,41,43,45,47,49,51,53,55,57,59,61,63,65,67,69,71,73,75,77,79,81,83,85,87,89,91,93,95,97,99,101,103,105,107,109,111,113,115,117,119,121,123,125,-1,-1,-1,-1,-1,-1,-1,-1,-1,-1,-1,-1,-1,-1,-1,-1,-1,-1,-1,-1,-1,-1,-1,-1,-1,-1,-1,-1,-1,-1,-1,-1,-1,-1,-1,-1,-1,-1,-1,-1,-1,-1,-1,-1,-1,-1,-1,-1,-1,-1,-1,-1,-1,-1,-1,-1,-1,-1,-1,-1,-1,-1,-1,-1],"loss_changes":[3.6427578E1,2.5325197E1,2.6892319E1,1.9862537E1,1.392403E1,9.068277E0,2.0297657E1,8.6426935E0,1.2177989E1,1.2424337E1,1.2928558E1,2.2914257E1,1.0505875E1,1.2151718E1,1.2243661E1,7.9054766E0,6.037916E0,1.0902203E1,6.904076E0,1.196925E1,5.67722E0,5.877406E0,7.0471573E0,6.0421596E0,1.4578175E1,7.655495E0,1.9822135E0,3.8478851E0,3.4917827E0,4.837311E0,7.8764534E0,1.8714664E1,7.000989E0,5.7744274E0,3.595534E0,9.44478E0,9.560984E0,8.8329E0,6.236242E0,9.460014E0,1.912993E0,4.6633067E0,7.458545E0,2.8939793E0,1.8399534E0,5.7434998E0,3.1338267E0,4.665606E0,9.629731E0,6.6306686E0,9.87003E0,1.1055505E1,5.939628E0,2.6332383E0,2.3357768E0,4.720276E0,2.5618849E0,4.2544804E0,8.019145E0,5.2330065E0,2.3836565E0,6.233218E0,8.06764E0,0E0,0E0,0E0,0E0,0E0,0E0,0E0,0E0,0E0,0E0,0E0,0E0,0E0,0E0,0E0,0E0,0E0,0E0,0E0,0E0,0E0,0E0,0E0,0E0,0E0,0E0,0E0,0E0,0E0,0E0,0E0,0E0,0E0,0E0,0E0,0E0,0E0,0E0,0E0,0E0,0E0,0E0,0E0,0E0,0E0,0E0,0E0,0E0,0E0,0E0,0E0,0E0,0E0,0E0,0E0,0E0,0E0,0E0,0E0,0E0,0E0,0E0,0E0,0E0],"parents":[2147483647,0,0,1,1,2,2,3,3,4,4,5,5,6,6,7,7,8,8,9,9,10,10,11,11,12,12,13,13,14,14,15,15,16,16,17,17,18,18,19,19,20,20,21,21,22,22,23,23,24,24,25,25,26,26,27,27,28,28,29,29,30,30,31,31,32,32,33,33,34,34,35,35,36,36,37,37,38,38,39,39,40,40,41,41,42,42,43,43,44,44,45,45,46,46,47,47,48,48,49,49,50,50,51,51,52,52,53,53,54,54,55,55,56,56,57,57,58,58,59,59,60,60,61,61,62,62],"right_children":[2,4,6,8,10,12,14,16,18,20,22,24,26,28,30,32,34,36,38,40,42,44,46,48,50,52,54,56,58,60,62,64,66,68,70,72,74,76,78,80,82,84,86,88,90,92,94,96,98,100,102,104,106,108,110,112,114,116,118,120,122,124,126,-1,-1,-1,-1,-1,-1,-1,-1,-1,-1,-1,-1,-1,-1,-1,-1,-1,-1,-1,-1,-1,-1,-1,-1,-1,-1,-1,-1,-1,-1,-1,-1,-1,-1,-1,-1,-1,-1,-1,-1,-1,-1,-1,-1,-1,-1,-1,-1,-1,-1,-1,-1,-1,-1,-1,-1,-1,-1,-1,-1,-1,-1,-1,-1],"split_conditions":[1.0054151E0,1.2265263E0,8.140859E-1,3.4829515E-1,1.9388845E0,1.9388845E0,-1.8951976E-1,1.9388845E0,1.1376145E0,2.3557316E-1,-1.6464158E0,3.096665E-1,1.52825E0,2.0019192E-1,5.7144076E-1,5.7144076E-1,1.7447109E0,6.1521834E-1,1.4164901E0,3.1431491E0,-1.0955919E-2,1.6774964E0,1.7607056E0,-1.2377126E0,7.601279E-1,7.043601E-1,1.254422E0,2.6421862E0,1.1376145E0,2.917664E0,-1.4320296E0,-1.0092572E0,-7.198997E-1,2.6421862E0,1.1770715E0,-8.7166667E-1,-2.3912647E-1,1.0907629E0,-2.1223166E0,5.7144076E-1,4.0450892E0,6.5134895E-1,1.4065622E0,9.687554E-1,2.466694E0,-1.29102E0,4.64953E-1,1.2645246E0,-1.0609025E0,4.3732867E-1,1.1021116E0,7.442897E-1,1.6774964E0,1.0214908E0,1.5433102E0,-1.4320296E0,9.9057066E-1,-1.4792942E0,-2.4716549E-1,-1.511606E0,1.1770715E0,6.9689375E-1,8.8829875E-1,1.3982108E-1,1.1480857E-2,-2.2488259E-2,1.2496201E-2,3.792119E-2,1.9555725E-1,-1.2836613E-1,1.811737E-1,-1.0759611E-2,-7.019211E-2,-5.3239577E-2,3.269569E-2,-2.3184298E-2,4.8043463E-2,2.7666968E-1,2.7080424E-2,-4.1637896E-3,9.819213E-2,-8.8839896E-2,-2.9059848E-1,-1.9899887E-1,-4.0910974E-2,4.317216E-2,-1.5344958E-1,1.2844446E-1,-2.1186005E-1,-3.5245112E-1,-3.6665663E-2,1.1762564E-2,1.4220913E-1,-3.240922E-1,3.8475927E-2,-3.0010402E-2,-1.9232741E-1,1.1516741E-1,5.5233957E-3,-1.5750243E-1,-6.263286E-2,-4.515062E-2,4.1686364E-2,-4.119148E-2,5.223132E-2,-2.8789986E-2,7.929158E-2,-8.275909E-2,7.073139E-2,-3.7753242E-1,-8.516246E-2,8.386183E-2,-1.6085589E-1,3.842089E-2,-1.7699146E-1,1.1745584E-1,-1.00106485E-1,8.478447E-2,-8.004507E-2,1.6060616E-1,1.7288888E-2,-1.934861E-1,7.964625E-2,4.1902135E-3,3.2632548E-1,-8.614843E-2,-2.1846563E-2],"split_indices":[6,1,4,2,9,9,1,9,11,3,0,3,3,3,5,5,3,7,2,1,7,1,3,7,3,2,7,4,11,1,2,0,2,4,0,7,1,7,7,5,1,3,7,7,1,7,0,0,7,1,0,3,1,7,3,2,7,1,0,7,0,7,1,0,0,0,0,0,0,0,0,0,0,0,0,0,0,0,0,0,0,0,0,0,0,0,0,0,0,0,0,0,0,0,0,0,0,0,0,0,0,0,0,0,0,0,0,0,0,0,0,0,0,0,0,0,0,0,0,0,0,0,0,0,0,0,0],"split_type":[0,0,0,0,0,0,0,0,0,0,0,0,0,0,0,0,0,0,0,0,0,0,0,0,0,0,0,0,0,0,0,0,0,0,0,0,0,0,0,0,0,0,0,0,0,0,0,0,0,0,0,0,0,0,0,0,0,0,0,0,0,0,0,0,0,0,0,0,0,0,0,0,0,0,0,0,0,0,0,0,0,0,0,0,0,0,0,0,0,0,0,0,0,0,0,0,0,0,0,0,0,0,0,0,0,0,0,0,0,0,0,0,0,0,0,0,0,0,0,0,0,0,0,0,0,0,0],"sum_hessian":[1.3867645E4,8.241797E3,5.625847E3,7.184091E3,1.0577063E3,4.075118E3,1.5507295E3,3.9871372E3,3.1969534E3,7.403682E2,3.1733807E2,2.780786E3,1.294332E3,5.334934E2,1.017236E3,2.7978987E3,1.1892386E3,1.6062568E3,1.5906965E3,4.4845972E2,2.919085E2,1.894086E1,2.9839722E2,1.5335902E3,1.2471957E3,1.1898802E3,1.0445177E2,2.9472305E2,2.3877039E2,2.8176862E2,7.354674E2,6.88698E2,2.1092007E3,1.1591105E3,3.0128155E1,1.0992316E3,5.0702524E2,1.0820046E3,5.0869193E2,4.2473206E2,2.3727682E1,1.3305121E2,1.5885732E2,9.345104E0,9.595757E0,2.9114093E2,7.2562943E0,1.9243153E2,1.3411587E3,2.6898444E2,9.782112E2,7.837281E2,4.061522E2,9.341644E1,1.1035329E1,2.723062E2,2.2416836E1,1.305325E2,1.08237885E2,2.6643323E2,1.5335391E1,2.2669443E1,7.12798E2,1.2392733E2,5.647706E2,8.890574E2,1.2201433E3,1.1387357E3,2.0374754E1,2.7177103E1,2.9510531E0,3.5633545E2,7.428962E2,1.7959059E2,3.2743463E2,8.9297815E2,1.8902647E2,8.191222E0,5.005007E2,1.0923449E2,3.1549756E2,1.8513407E1,5.214274E0,1.8888416E1,1.14162796E2,1.4004419E2,1.8813126E1,7.2280807E0,2.1170237E0,7.198238E0,2.3975186E0,3.4655865E1,2.5648505E2,3.566694E0,3.6896002E0,1.7582298E2,1.6608562E1,7.5455505E1,1.2657031E3,1.3839986E2,1.3058458E2,8.4208044E2,1.3613078E2,1.3759694E2,6.4613116E2,3.5460733E2,5.1544846E1,8.275654E1,1.0659905E1,3.2816727E0,7.753656E0,6.707728E0,2.6559848E2,1.6445608E1,5.9712267E0,7.834375E0,1.2269812E2,4.3679897E1,6.455799E1,2.4374731E1,2.4205849E2,1.2266625E1,3.0687654E0,1.5281541E1,7.387902E0,3.968392E2,3.159588E2],"tree_param":{"num_deleted":"0","num_feature":"13","num_nodes":"127","size_leaf_vector":"1"}},{"base_weights":[-1.11925285E-2,-8.8862605E-2,1.4166569E-2,-3.9323393E-2,-2.0887785E-1,-2.9034091E-2,5.6484926E-2,1.3727127E-1,-5.601949E-2,-5.5872396E-2,-2.7339116E-1,-2.1234564E-2,-3.6237198E-1,8.2003765E-2,-4.6807252E-2,-3.242664E-1,2.8479382E-1,1.5349868E-1,-7.612929E-2,3.5564807E-1,-1.0588079E-1,-3.8388625E-1,-1.4183566E-1,-4.468532E-2,6.9595195E-2,2.6097286E-1,-4.3638268E-1,3.6480732E-2,1.5740903E-1,5.303468E-2,-8.3835945E-2,3.8088682E-1,-5.105622E-1,2.4864365E-1,1.457713E0,1.8076454E-1,-6.4068127E-1,-6.7867535E-1,-7.081879E-2,5.891073E-2,1.1360228E0,-6.0792945E-2,-5.103777E-1,2.2297405E-1,-4.1816878E-1,5.528686E-2,-2.2030331E-1,-3.061051E-3,-1.1404583E-1,1.3387708E-1,-7.6818265E-2,-6.728561E-1,7.0062673E-1,-2.8424102E-1,-7.207116E-1,3.6633393E-1,2.4512453E-2,-1.9657405E-1,1.7171374E-1,-2.5629546E-2,3.6534604E-1,-9.5498085E-2,4.2946434E-1,2.6968822E-1,-2.5739452E-1,-3.0574644E-1,-5.040506E-2,-2.1843496E-1,8.4893405E-2,5.460258E-1,7.361839E-2,-7.522422E-2,6.8720214E-2,7.7223875E-2,-3.0179745E-1,-3.1359956E-1,2.5438583E-2,5.5569643E-3,-3.099455E-2,-1.16350144E-1,1.3458027E-1,-9.032243E-2,4.712397E-1,-3.593589E-2,7.106404E-2,-1.8375352E-1,3.150345E-3,-4.424766E-2,3.7961796E-1,-1.3463601E-1,-8.412695E-3,2.1517757E-1,6.330877E-4,-8.271159E-2,7.069963E-2,1.2536372E-2,-1.6680885E-2,-2.1882573E-2,-6.834725E-2,2.9211383E-2,1.6555288E-1,-3.649021E-2,1.1071861E-1,4.5022096E-2,-3.240633E-1,1.2350422E-2,3.403591E-1,-5.4647107E-2,-2.892566E-1,-2.647129E-1,-5.686991E-2,3.377149E-1,9.563028E-2,-3.1230872E-4,3.8557936E-2,1.5180065E-1,-1.1511379E-1,7.40626E-2,2.9624805E-2,2.7820518E-2,-9.210573E-2,5.190293E-2,3.934912E-1,-1.0229468E-2,-5.7528943E-2,1.7824678E-1,-1.4673662E-1],"categories":[],"categories_nodes":[],"categories_segments":[],"categories_sizes":[],"default_left":[0,0,0,0,0,0,0,0,0,0,0,0,0,0,0,0,0,0,0,0,0,0,0,0,0,0,0,0,0,0,0,0,0,0,0,0,0,0,0,0,0,0,0,0,0,0,0,0,0,0,0,0,0,0,0,0,0,0,0,0,0,0,0,0,0,0,0,0,0,0,0,0,0,0,0,0,0,0,0,0,0,0,0,0,0,0,0,0,0,0,0,0,0,0,0,0,0,0,0,0,0,0,0,0,0,0,0,0,0,0,0,0,0,0,0,0,0,0,0,0,0,0,0,0,0,0,0],"id":12,"left_children":[1,3,5,7,9,11,13,15,17,19,21,23,25,27,29,31,33,35,37,39,41,43,45,47,49,51,53,55,57,59,61,63,65,67,69,71,73,75,77,79,81,83,85,87,89,91,93,95,97,99,101,103,105,107,109,111,113,115,117,119,121,123,125,-1,-1,-1,-1,-1,-1,-1,-1,-1,-1,-1,-1,-1,-1,-1,-1,-1,-1,-1,-1,-1,-1,-1,-1,-1,-1,-1,-1,-1,-1,-1,-1,-1,-1,-1,-1,-1,-1,-1,-1,-1,-1,-1,-1,-1,-1,-1,-1,-1,-1,-1,-1,-1,-1,-1,-1,-1,-1,-1,-1,-1,-1,-1,-1],"loss_changes":[2.7006905E1,2.0057001E1,1.8899647E1,7.054654E0,9.715607E0,1.3292927E1,1.3768991E1,1.4168634E1,9.21505E0,6.0805626E0,1.0021767E1,1.0653157E1,5.507119E0,1.4370243E1,3.831628E0,6.8340945E0,6.3028708E0,4.265258E0,6.33142E0,7.3538837E0,4.758086E0,7.919136E0,4.9312205E0,1.1474527E1,9.670488E0,5.822175E0,4.331661E0,1.0305504E1,8.015301E0,6.904927E0,4.563769E0,7.9181213E0,6.8683825E0,5.3606586E0,1.5277996E0,3.9352074E0,2.4179285E0,4.9318275E0,5.742876E0,4.3996005E0,5.95494E0,4.19715E0,1.4002285E0,8.206018E0,4.244484E0,3.214052E0,5.8163166E0,5.8579807E0,6.9545727E0,1.0834754E1,6.315067E0,1.7316046E0,2.6289606E0,4.6808834E0,2.9156952E0,2.9429312E0,6.704269E0,8.305047E0,8.287128E0,7.52705E0,1.0063234E1,4.364788E0,2.8573232E0,0E0,0E0,0E0,0E0,0E0,0E0,0E0,0E0,0E0,0E0,0E0,0E0,0E0,0E0,0E0,0E0,0E0,0E0,0E0,0E0,0E0,0E0,0E0,0E0,0E0,0E0,0E0,0E0,0E0,0E0,0E0,0E0,0E0,0E0,0E0,0E0,0E0,0E0,0E0,0E0,0E0,0E0,0E0,0E0,0E0,0E0,0E0,0E0,0E0,0E0,0E0,0E0,0E0,0E0,0E0,0E0,0E0,0E0,0E0,0E0,0E0,0E0,0E0,0E0],"parents":[2147483647,0,0,1,1,2,2,3,3,4,4,5,5,6,6,7,7,8,8,9,9,10,10,11,11,12,12,13,13,14,14,15,15,16,16,17,17,18,18,19,19,20,20,21,21,22,22,23,23,24,24,25,25,26,26,27,27,28,28,29,29,30,30,31,31,32,32,33,33,34,34,35,35,36,36,37,37,38,38,39,39,40,40,41,41,42,42,43,43,44,44,45,45,46,46,47,47,48,48,49,49,50,50,51,51,52,52,53,53,54,54,55,55,56,56,57,57,58,58,59,59,60,60,61,61,62,62],"right_children":[2,4,6,8,10,12,14,16,18,20,22,24,26,28,30,32,34,36,38,40,42,44,46,48,50,52,54,56,58,60,62,64,66,68,70,72,74,76,78,80,82,84,86,88,90,92,94,96,98,100,102,104,106,108,110,112,114,116,118,120,122,124,126,-1,-1,-1,-1,-1,-1,-1,-1,-1,-1,-1,-1,-1,-1,-1,-1,-1,-1,-1,-1,-1,-1,-1,-1,-1,-1,-1,-1,-1,-1,-1,-1,-1,-1,-1,-1,-1,-1,-1,-1,-1,-1,-1,-1,-1,-1,-1,-1,-1,-1,-1,-1,-1,-1,-1,-1,-1,-1,-1,-1,-1,-1,-1,-1],"split_conditions":[-3.51869E-1,8.140859E-1,1.1376145E0,-1.4792942E0,-1.0283241E0,2.917664E0,1.8875599E0,-1.8175218E0,-1.4215363E0,-1.3577917E0,-2.9221937E-2,1.2265263E0,-1.2591233E0,5.0189215E-1,5.7144076E-1,-1.0396125E0,1.5179081E0,1.772555E0,-1.3965497E0,1.9388845E0,1.385557E0,-1.7901186E0,5.7144076E-1,1.0054151E0,2.1284664E0,-1.7588556E0,7.043601E-1,-1.4320296E0,-1.7588556E0,1.012508E0,2.6421862E0,1.1154177E0,2.5784284E-1,-2.0462017E0,7.043601E-1,-1.4380411E0,-8.3840525E-1,1.9388845E0,5.7144076E-1,1.1376145E0,-7.198997E-1,9.5219195E-1,1.8875599E0,1.060425E0,2.6421862E0,4.3143174E-1,1.2409109E0,1.2763372E-1,8.140859E-1,2.015724E0,1.2728903E0,8.6727154E-1,-3.6383477E-1,1.2164909E0,7.3980576E-1,-2.3912647E-1,1.3392688E0,7.386989E-1,2.7687265E-2,8.140859E-1,